const float net0_conv0_weight[6][1][5][5] = {{{{ 0.27145702, 0.3179607 , 0.265289  , 0.24720192, 0.20938142},
   { 0.34651044, 0.28391218, 0.19595604, 0.06112963, 0.06153932},
   {-0.16075777,-0.07638959, 0.04479504,-0.05861929,-0.07618642},
   {-0.26349598,-0.23409022,-0.29724163,-0.12999657,-0.02832318},
   {-0.10657583,-0.26689196,-0.11273581,-0.10922249,-0.11136808}}},


 {{{-0.00458562,-0.09635263,-0.07698834,-0.10245618,-0.2975489 },
   {-0.09869903, 0.11335025,-0.26343277,-0.15616226,-0.27653414},
   { 0.20277885,-0.01665214,-0.04214221, 0.02365314,-0.03430551},
   { 0.23257248, 0.4476499 , 0.30749744, 0.5216545 , 0.36644852},
   { 0.26455477, 0.34276423, 0.19793713, 0.29233697, 0.45885125}}},


 {{{-0.27582413,-0.02475967, 0.26068082, 0.49632186, 0.40720344},
   {-0.06614934, 0.17833619, 0.47146505, 0.6614651 , 0.23114915},
   { 0.12490804, 0.1916934 , 0.6802963 , 0.6712435 , 0.00859212},
   {-0.01657406, 0.34549725, 0.6057243 , 0.49375737, 0.06166153},
   { 0.04112762, 0.16107531, 0.37117866, 0.43648264, 0.09324996}}},


 {{{-0.01592034, 0.04532369,-0.01912591,-0.22206968,-0.13027477},
   {-0.00940069,-0.20928068,-0.19456808, 0.04797284, 0.0854954 },
   {-0.03110619,-0.05447051,-0.02697973, 0.07095893, 0.3257525 },
   { 0.28773728, 0.37075984, 0.28130433, 0.08703524, 0.25112292},
   { 0.34765518, 0.41683123, 0.43669322, 0.10791643, 0.08411938}}},


 {{{ 0.21581635, 0.55037886, 0.33325016, 0.33477533, 0.41707215},
   {-0.07194361, 0.1115734 , 0.2534991 , 0.13886967, 0.17161015},
   {-0.37050936,-0.29180217,-0.14836766,-0.15297239,-0.1856616 },
   {-0.0406085 ,-0.3669391 ,-0.25536197,-0.16076116,-0.18996486},
   { 0.0533786 , 0.02701906,-0.1477466 ,-0.20078507, 0.00559119}}},


 {{{ 0.27159408, 0.42689446, 0.04065273,-0.17130707,-0.24214636},
   { 0.30429   , 0.55261964, 0.2788736 ,-0.04396096,-0.14373183},
   {-0.01588435, 0.24573272, 0.51592124, 0.2760503 , 0.16467507},
   {-0.12392238,-0.06949496, 0.48184627, 0.56780726, 0.47365397},
   {-0.13016663,-0.16966732,-0.13184007, 0.2748878 , 0.13929349}}}};
const float net0_conv0_bias[6] = { 0.08092611,-0.00118343,-0.00019739,-0.00068729, 0.04777743, 0.00198489};
const float net0_conv1_weight[16][6][5][5] = {{{{ 1.16054537e-02, 4.30628061e-02,-1.91220734e-02, 7.01808631e-02,
     1.20923780e-02},
   { 5.35465032e-02,-6.67488798e-02, 1.50487246e-02, 1.19247988e-01,
     3.59794684e-02},
   {-1.29105682e-02,-1.58503093e-02, 9.23909843e-02, 1.02182455e-01,
    -2.88556237e-03},
   {-1.07455499e-01, 4.12494279e-02, 4.46424671e-02,-9.35252383e-03,
     3.71029880e-03},
   { 6.45159110e-02, 7.04628602e-02, 9.79743451e-02,-2.83777937e-02,
     1.29209638e-01}},

  {{ 7.58860633e-02, 7.20314831e-02,-7.43537722e-03, 5.46325110e-02,
     6.78421790e-03},
   { 1.10023133e-01,-8.00588951e-02,-2.18977351e-02,-7.20499381e-02,
    -6.96267262e-02},
   { 4.99304757e-02, 5.93820913e-03,-8.44571926e-03, 2.68850196e-02,
     1.54713809e-01},
   { 8.66567343e-02, 1.42738754e-02, 3.11948750e-02, 8.00319090e-02,
     2.14285612e-01},
   { 5.60902432e-02,-1.01511006e-03, 1.14444390e-01,-4.68504429e-02,
     1.56991221e-02}},

  {{-5.27114198e-02,-1.39994603e-02, 1.73934698e-02,-5.04921526e-02,
    -1.17768139e-01},
   {-2.53425464e-02,-8.90856385e-02,-8.08828548e-02,-2.78679598e-02,
    -2.16633976e-01},
   { 2.32482757e-02,-5.35407551e-02,-4.44690092e-03,-8.66580829e-02,
     1.95391793e-02},
   { 2.23596916e-02,-7.40236952e-04, 5.26244044e-02, 1.33500276e-02,
     1.67411372e-01},
   { 8.29815306e-03, 1.40862942e-01,-2.38400195e-02, 6.29658550e-02,
     1.16162039e-01}},

  {{ 9.59788561e-02,-7.57548511e-02, 4.56423848e-04, 3.02727874e-02,
     2.94181723e-02},
   { 6.16826601e-02,-1.63620170e-02,-4.10579592e-02,-4.44094799e-02,
    -1.45765573e-01},
   { 3.00044045e-02,-2.64360420e-02,-3.70586626e-02,-1.73260756e-02,
    -1.68002062e-02},
   { 5.38561568e-02, 1.28539294e-01, 8.74888971e-02, 2.64826007e-02,
     8.57197940e-02},
   {-7.98716173e-02, 4.03641202e-02, 9.50789899e-02, 8.29504877e-02,
    -4.26376387e-02}},

  {{ 3.39939147e-02, 4.92000990e-02, 6.06130362e-02,-6.18862286e-02,
    -1.92512106e-02},
   { 5.60477600e-02,-9.21227187e-02, 7.18943477e-02, 6.03859760e-02,
    -1.65934768e-02},
   {-1.06978184e-02,-8.13034326e-02, 4.35017422e-02, 6.90710172e-02,
     9.95254423e-03},
   { 7.61988536e-02, 4.96143363e-02, 1.21775083e-03, 7.54344910e-02,
    -8.74682516e-02},
   { 9.23514664e-02,-1.28440745e-02, 1.04140088e-01, 1.07825212e-01,
     4.68562432e-02}},

  {{-1.15712816e-02,-4.48821299e-02,-6.79254308e-02,-9.02978852e-02,
    -1.43019140e-01},
   {-4.37212028e-02, 1.30241178e-02,-1.27848908e-01,-9.44512039e-02,
    -4.71350504e-03},
   {-1.25230011e-02, 3.46393026e-02,-7.54421875e-02,-1.27290040e-01,
    -6.37626648e-02},
   {-1.55152343e-02, 6.03189878e-02,-2.15968676e-03,-1.66668799e-02,
     1.06135644e-01},
   { 1.88660756e-01, 2.73652039e-02, 1.71106644e-02, 1.83762815e-02,
     9.10274535e-02}}},


 {{{-6.12701885e-02,-8.16980898e-02,-1.18937984e-01,-9.07483399e-02,
     3.83229777e-02},
   {-1.16007201e-01,-7.85277504e-03,-1.01381384e-01,-8.03523213e-02,
    -2.47376468e-02},
   { 8.24836548e-03,-4.30572294e-02,-1.03495680e-01, 6.09761588e-02,
     6.97006956e-02},
   {-3.75103615e-02,-3.45076211e-02, 1.08234502e-01,-2.81008966e-02,
     1.32130995e-01},
   {-6.75397366e-02,-1.00454904e-01,-8.31769630e-02, 2.63875946e-02,
    -3.04035824e-02}},

  {{-1.17314458e-01, 4.94231060e-02, 3.32821421e-02, 7.96584263e-02,
    -6.23661578e-02},
   { 9.59392488e-02, 6.79792911e-02, 1.47809759e-01, 1.22917950e-01,
    -6.08050525e-02},
   { 7.11451098e-02, 9.94619578e-02, 1.03665672e-01, 7.51840398e-02,
     5.59031181e-02},
   { 9.96937323e-03,-2.37690248e-02,-2.78735422e-02,-6.51656613e-02,
    -3.81427333e-02},
   {-1.61827043e-01,-4.72627394e-02,-3.01727047e-03,-1.39311165e-01,
    -8.07106793e-02}},

  {{-2.23477066e-01,-9.75907743e-02, 1.68455377e-01, 1.48562461e-01,
    -6.67224973e-02},
   { 1.56067116e-02, 1.60357997e-01, 1.80686802e-01, 7.30670914e-02,
    -3.98068391e-02},
   { 1.08902782e-01, 1.52968690e-01, 9.61180851e-02, 5.03144488e-02,
    -4.98318821e-02},
   { 9.90165919e-02, 1.76097751e-02,-7.76591385e-03,-1.37285933e-01,
    -9.16602984e-02},
   {-3.99222150e-02,-3.96170355e-02,-4.74169999e-02,-9.51282755e-02,
    -2.41197616e-01}},

  {{-9.87298191e-02, 1.28414586e-01,-4.24607173e-02,-1.89751550e-03,
     3.04312594e-02},
   {-4.19601649e-02, 8.18671137e-02,-3.74798849e-03,-3.45425941e-02,
     3.14043020e-03},
   { 7.87198618e-02, 6.60878420e-02, 1.22434177e-01, 5.94653189e-03,
     7.20718950e-02},
   { 1.00936107e-01,-2.70050745e-02,-3.08828466e-02,-7.90343583e-02,
    -1.81628376e-01},
   {-1.38974011e-01,-1.68671429e-01,-1.04219258e-01,-9.10514519e-02,
    -1.60750672e-01}},

  {{ 4.34233658e-02,-1.15899570e-01,-7.93883875e-02,-6.38042986e-02,
     4.52394262e-02},
   {-7.86133334e-02,-4.25603949e-02,-1.00386687e-01,-7.88740739e-02,
    -9.70300809e-02},
   {-2.40201876e-02,-8.40473846e-02,-1.25328407e-01, 2.82094982e-02,
     4.19259891e-02},
   {-2.50159130e-02, 8.42462108e-02,-3.31167057e-02, 1.57142077e-02,
     1.01279564e-01},
   {-3.42062733e-04,-1.05850577e-01,-1.96787696e-02,-4.65418920e-02,
     9.92673710e-02}},

  {{ 1.80140473e-02,-6.37559965e-02, 4.09009214e-03,-7.75068253e-03,
     3.15653235e-02},
   {-5.47181591e-02,-7.46328337e-03,-3.77463400e-02, 1.24629244e-01,
     8.46051350e-02},
   {-3.51954103e-02, 2.32657790e-02,-6.58910861e-03,-7.08276173e-03,
     1.13475965e-02},
   {-2.47074664e-03,-8.42629932e-03, 4.51721251e-02, 9.42563824e-03,
    -8.68617147e-02},
   {-1.44993782e-01, 1.03494087e-02,-7.05559105e-02,-1.42819956e-01,
    -1.19600534e-01}}},


 {{{ 9.73202512e-02,-5.93727492e-02, 8.92569795e-02,-8.24851543e-02,
    -9.39902365e-02},
   { 6.78162277e-02,-5.35246208e-02, 4.77866940e-02,-2.36603487e-02,
    -8.18532631e-02},
   {-8.99807438e-02, 6.02559298e-02, 3.04388022e-03,-1.88611835e-01,
    -8.16387460e-02},
   { 3.18840668e-02,-8.37667063e-02, 1.05331400e-02,-9.18265358e-02,
    -8.96573588e-02},
   { 9.65470746e-02, 5.95631525e-02,-1.15514800e-01,-7.90946856e-02,
     6.12809472e-02}},

  {{-6.48018643e-02, 9.42299142e-03,-6.46173358e-02, 9.69570056e-02,
    -3.52235511e-02},
   { 6.56104535e-02,-8.75299349e-02,-7.23133460e-02,-1.75661705e-02,
    -6.20950572e-02},
   {-5.34118861e-02,-1.72251165e-01, 5.44357300e-03,-2.05555689e-02,
     8.31940919e-02},
   { 5.15956245e-02,-3.18191834e-02,-1.62643984e-01,-3.56985256e-02,
     8.32555592e-02},
   {-7.79720396e-02,-1.05774902e-01,-1.65850922e-01, 5.98092414e-02,
     3.97638939e-02}},

  {{-9.32537578e-03,-1.24004977e-02, 9.99590755e-03, 7.37380609e-02,
     1.29633278e-01},
   { 6.07260540e-02, 1.75164398e-02, 8.87221843e-02, 2.38391787e-01,
    -2.01716181e-02},
   {-4.78037493e-03,-1.51880622e-01, 1.94687590e-01, 2.40988359e-01,
    -7.61620924e-02},
   { 7.94240981e-02,-2.30307892e-01, 6.82665110e-02, 2.16779262e-01,
    -1.01293214e-01},
   { 2.10856530e-03,-2.85858423e-01,-4.12397571e-02, 7.06632063e-02,
    -1.32433414e-01}},

  {{-8.61746371e-02,-4.62696813e-02,-7.30845705e-02, 7.62338638e-02,
     1.30811974e-01},
   {-6.76503927e-02,-5.18419929e-02,-3.63478661e-02, 6.30173013e-02,
    -6.08995482e-02},
   {-2.82424372e-02, 2.58351932e-03,-4.29163836e-02, 5.12337871e-03,
     7.30158985e-02},
   { 2.29236558e-02,-1.50297225e-01, 2.47233286e-02,-1.97952557e-02,
    -2.47548297e-02},
   { 6.57647252e-02,-8.64751264e-02,-6.16989210e-02,-7.60399848e-02,
    -6.44227266e-02}},

  {{ 8.75473022e-02, 4.47477177e-02,-8.82814601e-02, 3.75651121e-02,
    -8.88982937e-02},
   {-1.89310610e-02,-3.22651081e-02,-1.19233206e-01,-1.64100960e-01,
     2.31773630e-02},
   {-1.14294186e-01,-8.99380073e-02,-1.37834385e-01,-1.64460421e-01,
    -9.92076322e-02},
   {-2.87017934e-02,-4.56889495e-02,-9.85796228e-02,-1.17358051e-01,
     7.33107189e-03},
   { 7.12809935e-02, 3.72148491e-02,-2.71289293e-02,-6.63312227e-02,
     7.10094646e-02}},

  {{ 7.58395121e-02, 2.22395603e-02, 1.67381000e-02,-3.51175554e-02,
    -1.02468558e-01},
   {-2.61558071e-02,-1.06166624e-01, 8.04523751e-02, 1.11379057e-01,
     2.21217088e-02},
   { 4.82229218e-02,-2.06796899e-01, 3.48690748e-02, 7.05266446e-02,
     1.37177020e-01},
   { 6.67339116e-02,-1.15392849e-01, 1.55284991e-02, 1.42035604e-01,
     2.22543836e-01},
   { 5.19064106e-02,-1.63481668e-01,-1.09678172e-01, 7.27340803e-02,
     1.19543903e-01}}},


 {{{-5.10578565e-02, 4.99045625e-02,-4.88542020e-02,-1.10369492e-02,
     2.16270965e-02},
   {-3.59312557e-02,-7.47592151e-02, 5.21483682e-02,-7.53652900e-02,
    -6.45764321e-02},
   {-5.93540147e-02, 8.19616169e-02, 3.92642394e-02,-1.03215501e-01,
    -1.32476121e-01},
   {-6.58863783e-02, 7.58217797e-02, 1.44068394e-02,-3.29082683e-02,
     6.11073971e-02},
   { 1.64340495e-03, 9.62976813e-02, 4.40073311e-02, 1.05741009e-01,
     9.84565094e-02}},

  {{-2.52719037e-02,-1.57987103e-02, 5.29146381e-02,-4.79121171e-02,
    -2.43136603e-02},
   {-3.33497301e-02,-1.67902410e-02,-2.44918056e-02,-5.13030291e-02,
    -1.78236179e-02},
   { 1.74371228e-01, 1.23314478e-01, 1.02743089e-01, 2.19614297e-01,
     2.91205108e-01},
   {-8.50484222e-02, 5.57273701e-02, 8.62207860e-02,-4.52057691e-03,
     2.29371395e-02},
   {-1.03106432e-01,-8.54481943e-03,-3.32385153e-02,-1.04748700e-02,
    -2.86301654e-02}},

  {{-8.15920234e-02,-7.43871257e-02,-8.67673755e-02,-1.93167627e-02,
    -1.72671348e-01},
   {-1.00055955e-01,-1.54853193e-02,-2.76209554e-03, 7.38782883e-02,
    -1.63063005e-01},
   {-4.29970883e-02, 9.24839675e-02, 2.10138485e-02, 9.94238108e-02,
     7.11997738e-03},
   { 6.01503178e-02, 1.73968598e-02,-7.77351763e-03,-1.79434177e-02,
     1.27628341e-01},
   {-1.42021123e-02,-1.51007801e-01,-7.61216804e-02,-9.99322012e-02,
    -3.42425741e-02}},

  {{-2.21814197e-02,-9.70399603e-02,-9.07265842e-02,-8.84229690e-02,
    -3.57294939e-02},
   { 4.14231420e-02, 6.03928566e-02, 4.09066910e-03, 5.07158460e-03,
    -7.91442469e-02},
   {-2.15509590e-02, 2.36847010e-02, 1.47126213e-01, 1.03566878e-01,
     1.80554882e-01},
   { 2.75533251e-03,-1.39953420e-02,-2.01598778e-02,-2.58225445e-02,
     8.55696052e-02},
   {-4.60981168e-02,-9.59514547e-03,-7.92746320e-02, 2.67381854e-02,
    -9.64306518e-02}},

  {{-2.35610884e-02, 4.10031155e-02,-1.19288459e-01,-2.06408147e-02,
    -7.46150687e-02},
   {-6.41983002e-02,-6.11881465e-02, 8.83889124e-02, 1.45708900e-02,
     2.57461723e-02},
   { 4.42750342e-02, 7.61770904e-02,-2.66543962e-02,-7.11622983e-02,
    -7.37821534e-02},
   {-1.69936642e-02,-5.01719639e-02, 1.93144251e-02, 5.03252186e-02,
     8.27942938e-02},
   { 2.08985284e-02,-4.80173230e-02, 4.45490479e-02, 2.10862458e-01,
     8.00757483e-02}},

  {{-6.73773000e-03,-3.81432846e-02,-1.89901069e-02,-1.82159562e-02,
    -1.88626349e-02},
   {-1.36087999e-01,-4.23755236e-02,-1.16731957e-01, 7.30124954e-03,
    -1.79052502e-02},
   {-3.21840569e-02, 5.26389200e-03,-6.54819459e-02, 1.73917696e-01,
     2.16557026e-01},
   {-1.20540317e-02, 1.66290589e-02, 6.79865554e-02, 1.66923240e-01,
     1.46059886e-01},
   {-3.31538469e-02,-5.39405197e-02,-4.31353552e-03,-8.56092572e-02,
     6.90847402e-03}}},


 {{{-8.32719505e-02,-5.60164191e-02, 7.76813133e-04, 8.08043499e-03,
     1.48474313e-02},
   { 1.41871190e-02,-8.15486088e-02,-4.02969681e-02,-3.09674237e-02,
    -3.61453034e-02},
   {-4.73583341e-02,-1.63472325e-01,-1.86866358e-01,-4.73783724e-02,
    -5.96718341e-02},
   {-1.32697701e-01,-8.37951433e-03,-9.01678056e-02,-7.78855234e-02,
    -2.40976177e-02},
   { 3.89379566e-03,-3.87562625e-02, 2.19369270e-02,-5.98584414e-02,
     5.60124256e-02}},

  {{ 8.10722336e-02, 6.17974699e-02, 2.98562367e-02,-6.53009787e-02,
     4.33828570e-02},
   {-9.20584947e-02, 4.78191748e-02, 5.17335199e-02,-5.61044589e-02,
    -1.34963721e-01},
   {-9.65493768e-02,-1.54607594e-02, 9.82631370e-03,-2.86465622e-02,
    -1.00974016e-01},
   {-7.29945488e-03,-8.35210159e-02,-2.47745160e-02,-5.43302624e-04,
    -7.85849392e-02},
   {-1.05687879e-01, 1.31646451e-02, 1.21284835e-02,-4.35676388e-02,
    -2.35077050e-02}},

  {{ 2.25615837e-02, 9.45246965e-02,-1.46772310e-01,-1.40634373e-01,
    -2.12967372e-03},
   { 2.62970589e-02, 1.81478456e-01, 5.37993126e-02,-2.21977934e-01,
     3.28356214e-02},
   {-2.50522159e-02, 2.57975549e-01, 1.75756980e-02,-5.39026745e-02,
    -5.99371605e-02},
   {-9.52422060e-03, 3.46074760e-01,-3.43711898e-02,-1.64881647e-01,
     2.06604190e-02},
   { 3.43174767e-03, 1.80296808e-01, 7.51805902e-02,-5.07196672e-02,
     5.65566011e-02}},

  {{-2.78224982e-02,-1.98811945e-02,-1.53915845e-02,-1.60726979e-02,
    -5.88515541e-03},
   { 1.13034211e-02,-1.96998734e-02, 7.36426488e-02,-1.16880007e-01,
    -2.46220641e-02},
   {-5.42654656e-02, 4.67277579e-02, 6.71098083e-02,-7.10451007e-02,
    -1.10953972e-01},
   { 2.70198938e-02,-8.08161199e-02,-6.54501915e-02,-1.92719686e-03,
    -3.55469473e-02},
   { 5.22188395e-02,-1.09559722e-01, 6.08354732e-02,-1.63531937e-02,
     3.01525369e-02}},

  {{-5.01755401e-02,-1.26417084e-02, 2.22652815e-02, 7.76671171e-02,
     1.30886575e-02},
   {-4.18367758e-02,-9.20680072e-03,-4.56998050e-02,-3.05450689e-02,
    -3.58818918e-02},
   {-1.35025963e-01,-1.26444682e-01,-1.01088487e-01,-3.30215916e-02,
    -8.21603686e-02},
   {-1.01551786e-01,-8.88068825e-02,-2.01969966e-02,-6.27189949e-02,
     4.53941384e-03},
   {-7.63433576e-02, 5.21621555e-02,-8.25560987e-02,-1.00179978e-01,
     7.49100512e-03}},

  {{-2.18370520e-02,-8.22776631e-02, 1.82121489e-02,-2.24654917e-02,
     7.00065121e-02},
   { 1.70670465e-01, 2.63669133e-01, 4.10817601e-02,-9.87208635e-02,
     2.25186441e-02},
   { 7.65307099e-02, 2.42355913e-01, 1.46212345e-02,-1.37952894e-01,
    -4.35150675e-02},
   {-1.82986602e-01,-1.08189816e-02, 2.34404448e-02, 6.45767078e-02,
     2.28503533e-03},
   {-1.48075089e-01, 4.13429216e-02, 1.71936646e-01, 9.43434704e-03,
     3.92113663e-02}}},


 {{{ 2.43393201e-02, 2.95347404e-02, 2.17416100e-02, 1.10569768e-01,
     9.10288021e-02},
   {-2.86921710e-02,-6.43088371e-02,-4.89984751e-02,-1.94896664e-02,
     7.02406513e-03},
   {-3.71652916e-02, 4.72002216e-02, 7.07906932e-02, 4.86478433e-02,
     7.91874900e-02},
   { 5.73535599e-02, 5.29475808e-02,-1.01863155e-02, 9.02435482e-02,
     4.48378472e-04},
   {-9.02976394e-02,-1.59170143e-02, 9.28989984e-03, 7.66036287e-02,
    -1.95886474e-02}},

  {{-1.64715290e-01,-1.11930043e-01,-1.74327672e-01,-1.50658190e-01,
    -1.23758048e-01},
   { 8.44672099e-02,-5.19528501e-02,-4.28100638e-02, 2.38599256e-04,
     8.73582065e-02},
   { 1.06338196e-01, 1.12693653e-01, 1.58204168e-01, 9.53414589e-02,
     8.07859823e-02},
   { 1.80366803e-02, 1.16997771e-01, 5.68486042e-02,-5.19751534e-02,
     6.46083355e-02},
   { 3.12993973e-02,-8.34527984e-02, 8.51873532e-02, 2.18778453e-03,
     5.01783937e-02}},

  {{-1.64084435e-01,-1.10994130e-01, 2.63105948e-02,-5.97743392e-02,
    -1.52963862e-01},
   {-2.41145626e-01,-2.10478500e-01,-1.27527148e-01,-1.54070973e-01,
    -1.10623963e-01},
   {-8.01497400e-02, 6.63260370e-02, 4.61817868e-02,-5.32345809e-02,
     1.59129873e-02},
   { 4.45428118e-02, 1.41977578e-01, 9.12694037e-02, 8.73434767e-02,
     4.11808537e-03},
   { 4.99753505e-02, 1.23026989e-01, 3.43538448e-03,-1.13038488e-01,
     3.96822542e-02}},

  {{-4.52050604e-02,-1.10956952e-01,-1.62011012e-01,-6.06686212e-02,
    -8.63860548e-02},
   {-1.12396572e-02, 3.41679305e-02,-5.50937513e-03, 5.19036315e-02,
    -3.19162942e-02},
   { 1.07750580e-01, 9.46250781e-02, 8.76585916e-02, 2.24573351e-02,
     1.48686871e-01},
   { 5.60299009e-02, 8.56588408e-02,-2.75994521e-02,-8.38746727e-02,
     7.44859036e-03},
   {-2.10663565e-02,-1.15051411e-01, 1.99149363e-02,-1.12718977e-01,
    -1.07147738e-01}},

  {{ 9.67496485e-02,-8.82315729e-03, 1.04809128e-01, 1.65713456e-04,
     2.45990027e-02},
   { 9.05880257e-02,-3.15274261e-02, 2.19921228e-02,-3.47044989e-02,
    -5.23346069e-04},
   {-1.57639012e-02,-8.54673460e-02, 5.72471209e-02, 1.14735635e-02,
    -3.48973460e-02},
   {-2.06878874e-02, 8.99900198e-02, 2.31849030e-02, 1.25488536e-02,
     1.13002092e-01},
   {-4.47934642e-02, 9.94677395e-02, 1.09043017e-01, 3.32863256e-02,
     9.81659889e-02}},

  {{-3.68179530e-02, 3.03843766e-02,-3.11466902e-02,-7.76091814e-02,
    -2.94765737e-02},
   {-1.99418277e-01,-1.41108215e-01,-1.40610769e-01,-1.35666236e-01,
     2.78883036e-02},
   {-5.65251224e-02,-7.16997758e-02, 4.79651988e-02, 4.19790260e-02,
     2.18987837e-02},
   { 1.05769329e-01, 2.72391587e-02, 1.23896658e-01,-4.13319282e-02,
     1.44970983e-01},
   { 3.49164680e-02, 3.22335176e-02, 2.68851928e-02, 6.94063976e-02,
     1.21443253e-03}}},


 {{{ 2.29694862e-02,-1.36260763e-01, 5.78228123e-02,-1.26766879e-02,
    -5.44892699e-02},
   { 1.15040103e-02,-1.02854464e-02,-6.72354177e-02,-3.76732415e-03,
    -1.11774653e-01},
   {-5.53433299e-02,-6.53215274e-02, 1.34795129e-01, 1.35748938e-01,
    -6.70176148e-02},
   { 1.03066735e-01, 2.76114177e-02, 1.58333167e-01, 1.32828921e-01,
     5.40612675e-02},
   {-7.04017729e-02,-2.05456279e-02, 2.15455219e-02,-4.46396768e-02,
     7.11588636e-02}},

  {{ 6.26698658e-02,-4.55475487e-02,-4.84665297e-02,-1.43313050e-01,
    -4.88264821e-02},
   { 1.10694051e-01, 2.03732774e-01, 2.42284119e-01, 1.51233852e-01,
     1.72383282e-02},
   { 7.32321516e-02, 7.04792887e-02, 1.02401167e-01, 4.00769077e-02,
     4.46906909e-02},
   {-3.06256860e-02, 2.88458401e-03, 9.06156152e-02,-1.91554893e-02,
    -1.42995175e-03},
   {-4.32346128e-02,-5.75518459e-02,-6.42065629e-02,-3.73175144e-02,
    -1.40681535e-01}},

  {{ 7.41007328e-02, 7.14449733e-02,-9.23406854e-02,-1.35374531e-01,
    -2.06475243e-01},
   {-4.58864346e-02,-4.38119732e-02,-2.61770636e-02,-8.75697285e-03,
    -2.27082118e-01},
   {-4.09339443e-02,-1.48782693e-02,-4.36285287e-02, 8.58975723e-02,
     4.30801660e-02},
   {-2.38148756e-02,-1.00227054e-02,-8.11464712e-02, 1.10913608e-02,
    -6.01625405e-02},
   {-1.67556837e-01,-1.44600257e-01,-1.72197178e-03, 1.06905252e-01,
     9.49343853e-03}},

  {{-5.98600507e-02,-4.63653095e-02,-7.01483116e-02,-1.39612153e-01,
     6.87503722e-03},
   { 6.06146343e-02, 8.70845914e-02, 1.95038095e-01, 7.76292831e-02,
     5.31002395e-02},
   {-3.31223831e-02, 1.23314865e-01, 1.62602678e-01,-7.00272098e-02,
    -6.32132217e-03},
   {-2.09060442e-02,-1.49747841e-02, 8.87085043e-05, 4.84966971e-02,
    -4.53294776e-02},
   {-3.81083251e-03, 3.51078101e-02,-2.60158144e-02,-9.21093952e-03,
    -4.46515344e-02}},

  {{-1.32741511e-01,-1.10530378e-02,-9.54137929e-03, 3.08471620e-02,
     8.73386264e-02},
   {-7.56585854e-04,-1.11772619e-01,-4.59545106e-02, 4.07377966e-02,
    -1.09940944e-02},
   { 8.28126371e-02,-5.56423748e-03, 9.45145860e-02, 4.80845273e-02,
     2.04233229e-02},
   { 1.27262279e-01, 8.80751312e-02, 8.51537436e-02, 1.48082212e-01,
    -1.68756321e-02},
   { 1.50957525e-01, 1.04295671e-01,-3.27166766e-02, 5.09513682e-03,
     9.94540605e-05}},

  {{ 9.92390662e-02,-2.34410446e-02,-6.06739596e-02, 9.81611852e-03,
    -1.33156449e-01},
   { 6.14904203e-02, 1.84411690e-01, 1.95693105e-01, 3.34604383e-02,
    -6.40904307e-02},
   { 3.95651497e-02, 2.47600913e-01, 2.14222834e-01, 1.28907219e-01,
     5.00335209e-02},
   { 5.36515340e-02,-3.15989479e-02, 1.79621235e-01, 1.02055468e-01,
     3.14452015e-02},
   {-8.82079229e-02,-4.81127016e-02,-1.03585109e-01,-9.20832902e-02,
    -1.40901253e-01}}},


 {{{-3.78960297e-02,-3.10607012e-02,-2.37047635e-02,-2.64384523e-02,
    -6.42146915e-04},
   { 3.26079726e-02,-8.66531655e-02,-1.97821051e-01,-3.06943282e-02,
     6.50386140e-02},
   {-1.22842537e-02,-1.62516817e-01,-1.17864244e-01, 9.14738402e-02,
    -8.76396243e-03},
   {-4.98508923e-02,-3.29295881e-02, 3.37679684e-02, 5.53308353e-02,
     9.67534166e-03},
   {-8.19168314e-02, 2.73791403e-02,-8.05639476e-02,-3.16986404e-02,
    -1.23202773e-02}},

  {{ 2.60534380e-02,-1.00372158e-01, 1.62955131e-02, 3.20435315e-02,
    -2.38217656e-02},
   {-4.76910099e-02,-3.61330621e-02, 3.19238752e-02,-3.77863497e-02,
    -2.14156564e-02},
   {-9.30477977e-02,-5.87120932e-03, 1.52664483e-02,-1.08920746e-02,
    -6.24150671e-02},
   {-6.05522841e-02,-3.69914994e-02, 7.56575018e-02, 1.09139167e-01,
     3.22779939e-02},
   {-3.60977799e-02, 1.05550572e-01, 1.75028238e-02, 9.89775956e-02,
    -2.88812984e-02}},

  {{-5.68965077e-02,-9.51601099e-03, 1.59479275e-01, 7.34978989e-02,
    -2.00501531e-02},
   {-2.33820841e-01, 1.07142746e-01, 3.46426964e-01, 9.20173079e-02,
    -1.69962466e-01},
   { 2.44037379e-02, 3.22598994e-01, 7.03544095e-02,-1.69921607e-01,
    -4.56342287e-02},
   { 2.46460542e-01, 1.71113431e-01,-1.74737170e-01, 1.17002530e-02,
     5.81667274e-02},
   { 6.27517402e-02,-6.40865117e-02,-1.84044853e-01, 2.81276163e-02,
    -4.95123230e-02}},

  {{-8.60371441e-02,-8.18407070e-03, 1.79630350e-02, 3.18005355e-03,
    -1.52489424e-01},
   { 5.74071184e-02, 1.02344058e-01, 6.70780838e-02,-1.44072279e-01,
    -1.04929879e-01},
   { 1.49679780e-01,-6.01613000e-02, 5.67823276e-03,-2.28949264e-02,
     8.83600041e-02},
   {-8.29514489e-03,-1.32271796e-01,-8.28133300e-02, 4.32488210e-02,
     3.98226827e-02},
   {-8.56135637e-02, 4.79519367e-02, 6.60690963e-02, 1.05681457e-02,
     4.99409810e-02}},

  {{-2.57649291e-02, 2.71776635e-02,-1.37062952e-01, 1.69507708e-04,
    -9.10057425e-02},
   { 3.99398394e-02,-7.59158358e-02,-9.36993957e-02,-3.09458282e-02,
    -6.75995043e-03},
   {-1.06179565e-01,-1.56334281e-01,-1.41107902e-01,-1.37206957e-01,
    -9.64802951e-02},
   {-7.72359446e-02,-1.24407396e-01,-7.70574808e-02, 7.42651988e-03,
    -5.68417422e-02},
   { 9.00865626e-03,-1.03201516e-01, 8.24992359e-02,-8.65203794e-03,
     1.17188461e-01}},

  {{-5.62421009e-02, 6.41451478e-02, 8.68683308e-02,-2.09273174e-02,
     7.22501352e-02},
   { 5.90365119e-02, 3.58788334e-02,-4.59768027e-02, 2.92231608e-02,
    -2.67306734e-02},
   {-5.16508594e-02,-1.09237224e-01, 3.59559245e-02, 8.39886144e-02,
    -4.24902178e-02},
   {-2.20250301e-02,-2.20547225e-02, 1.32813770e-02, 5.71765378e-02,
    -1.25206649e-01},
   {-9.84431058e-02, 3.03985458e-02, 5.40956669e-03,-6.48915023e-02,
     4.00625914e-02}}},


 {{{ 1.28350453e-02,-5.48926406e-02, 6.86753588e-03,-1.07190572e-02,
     4.54283170e-02},
   {-2.23672446e-02, 2.68769097e-02, 4.70791981e-02, 4.93437573e-02,
     6.64250478e-02},
   {-1.98101765e-03,-3.60516682e-02, 9.26033333e-02, 2.84120679e-01,
     2.65627772e-01},
   { 5.72691970e-02, 8.46056640e-02, 1.82172619e-02, 6.67010397e-02,
     3.31368968e-02},
   {-5.01341093e-03,-6.29042089e-02,-6.01642430e-02,-6.80350438e-02,
    -1.10118240e-02}},

  {{-1.18581660e-01,-5.52292205e-02, 1.55977398e-01, 1.51186153e-01,
     1.38824046e-01},
   { 5.58921769e-02, 1.19834475e-01, 3.97883728e-02, 1.20362706e-01,
     1.14863656e-01},
   { 1.81039446e-03, 4.47120406e-02,-1.30695790e-01,-9.88915265e-02,
    -1.55081630e-01},
   { 7.81920776e-02,-2.97666397e-02, 1.91730842e-01, 1.62821412e-01,
     8.30779448e-02},
   {-4.95857075e-02, 5.92298247e-02, 1.75106958e-01, 8.24859068e-02,
    -2.13192776e-02}},

  {{ 5.10586984e-02,-6.12597093e-02,-1.16892248e-01, 2.31755748e-02,
     4.31694044e-03},
   {-1.36314496e-01, 4.22032736e-02, 4.03297432e-02, 1.03324182e-01,
     2.37380952e-01},
   {-1.85829271e-02, 8.70282426e-02,-1.07729450e-01,-1.74863294e-01,
    -1.56940192e-01},
   {-2.30508437e-03,-1.51098043e-01,-2.29228407e-01,-2.77757347e-01,
    -2.23874435e-01},
   {-1.19748197e-01,-6.84139729e-02, 2.79271211e-02, 7.50871003e-02,
    -2.12874599e-02}},

  {{-4.71632443e-02,-3.95700969e-02, 5.28638773e-02, 1.16875410e-01,
     2.16668963e-01},
   { 1.26039120e-03, 4.48319726e-02, 1.58751056e-01, 1.03996672e-01,
    -4.43922766e-02},
   { 1.20388538e-01,-1.80211905e-02,-7.03149959e-02,-1.35867611e-01,
    -3.72431590e-04},
   {-3.63129713e-02, 6.20505714e-04, 4.89361510e-02, 3.44271515e-03,
     1.19129650e-01},
   {-5.04156314e-02, 1.78848580e-02, 1.06420748e-01, 1.87985197e-01,
    -1.90406218e-02}},

  {{ 6.13056980e-02,-2.14550029e-02, 9.84161422e-02,-5.85212484e-02,
    -3.67676876e-02},
   {-5.59563525e-02,-1.91672519e-02, 6.31382763e-02,-4.31681201e-02,
     1.37514800e-01},
   {-2.73864754e-02, 9.43996683e-02, 2.21538112e-01, 2.48858631e-01,
     1.31502524e-01},
   { 7.42681623e-02, 9.46261138e-02, 1.25817016e-01, 1.50625020e-01,
     1.46785122e-03},
   { 1.40704215e-01, 2.91565582e-02, 8.85480195e-02, 8.96192063e-03,
     3.08800638e-02}},

  {{-1.45738013e-02,-9.51146036e-02, 7.07650036e-02,-1.51506346e-02,
     8.51866081e-02},
   {-2.59625036e-02, 1.08403802e-01, 1.13707282e-01, 7.70552307e-02,
     1.11703858e-01},
   {-3.90717387e-02,-4.75043096e-02,-1.13488801e-01, 4.60622087e-02,
     1.77349169e-02},
   { 1.12299971e-01, 7.64215142e-02,-2.92046145e-02,-5.14671057e-02,
    -1.89233705e-01},
   { 8.32333267e-02, 1.66792706e-01, 7.97085539e-02, 1.16309248e-01,
    -1.57814790e-02}}},


 {{{-1.20890662e-01,-7.00889602e-02,-7.51039684e-02,-1.04682907e-01,
    -1.41773196e-02},
   {-1.21916026e-01,-4.39064503e-02, 2.29396243e-02, 1.28870219e-01,
     2.15958059e-02},
   {-1.47286113e-02, 7.10144714e-02, 1.29773200e-01, 6.14233315e-02,
    -4.92117554e-02},
   { 1.42201865e-02, 1.26515478e-01,-3.40733081e-02,-1.09746061e-01,
    -4.91374508e-02},
   { 7.24459514e-02, 7.61695020e-03,-1.77486299e-03,-3.80198583e-02,
     1.62284393e-02}},

  {{-8.58973246e-03, 6.03746995e-02, 8.95625055e-02, 2.58344263e-02,
     1.69013515e-02},
   { 1.39621813e-02, 1.24246724e-01, 4.43390943e-02,-4.92103696e-02,
    -3.65136825e-02},
   { 6.21913709e-02, 2.59598624e-02,-9.38995704e-02,-1.46848992e-01,
    -1.70381386e-02},
   {-3.62302437e-02,-1.76451895e-02,-1.02441251e-01,-3.91982868e-02,
    -3.47177126e-02},
   {-9.17300675e-03,-5.28256148e-02,-1.28657535e-01, 9.60299838e-03,
    -1.53467283e-01}},

  {{-1.83397103e-02,-5.00748679e-02, 1.16107143e-01, 1.73736215e-01,
     1.71250567e-01},
   {-7.02968836e-02, 1.19616657e-01, 2.74883449e-01, 1.51068747e-01,
    -1.38466172e-02},
   { 1.02337599e-01, 1.45781383e-01, 9.31583643e-02,-1.53330058e-01,
    -2.01612324e-01},
   {-4.79493849e-03, 3.49058472e-02,-9.47738066e-02,-2.23960012e-01,
    -6.45728782e-03},
   {-1.44285962e-01,-4.75173518e-02,-1.01238102e-01, 2.11706404e-02,
    -9.02693719e-02}},

  {{-6.23374172e-02, 3.93466130e-02, 7.24259168e-02, 8.43818560e-02,
     1.07599221e-01},
   { 1.43824965e-01, 1.91300377e-01, 1.52689293e-01, 7.38952681e-03,
    -1.23758569e-01},
   { 5.00735082e-02,-8.42567384e-02,-9.97791216e-02,-2.95277294e-02,
     1.91753637e-02},
   {-4.96746190e-02,-3.31969187e-02,-6.18689172e-02,-9.78382900e-02,
     1.29491398e-02},
   { 1.09106414e-02,-1.76233717e-03,-2.78543159e-02, 1.24831945e-02,
    -6.48921952e-02}},

  {{-5.68596311e-02, 6.02729619e-02, 5.21960035e-02,-8.48539546e-02,
     5.38759269e-02},
   {-4.17557210e-02, 1.52875464e-02, 7.95461088e-02, 1.02748074e-01,
     1.05580524e-01},
   {-1.68317650e-02, 1.05682068e-01, 9.43822339e-02, 9.80548561e-03,
     2.34718435e-02},
   {-1.14742210e-02, 2.63195252e-03, 8.30272287e-02,-1.54617712e-01,
    -5.01730628e-02},
   { 2.27671210e-02,-1.55556845e-02,-1.42400280e-01, 1.31584723e-02,
    -6.94579259e-02}},

  {{ 2.74835918e-02, 3.42244580e-02, 4.16528210e-02, 8.29328597e-02,
     4.61130850e-02},
   { 5.21873608e-02, 1.03798904e-01,-3.25695015e-02,-1.00188807e-01,
    -5.86113520e-02},
   {-8.18565767e-03, 8.46210122e-02,-4.63698320e-02, 6.26494661e-02,
    -1.43827414e-02},
   {-4.11521010e-02,-5.10226823e-02,-1.09573171e-01,-9.49584991e-02,
    -1.41102582e-01},
   {-1.04505494e-01,-1.55733839e-01,-1.82790577e-01,-1.24399379e-01,
    -1.13395512e-01}}},


 {{{-3.01330164e-02,-5.30498056e-03, 6.82219714e-02, 6.04894236e-02,
     5.55295497e-02},
   { 3.10230553e-02,-7.37010762e-02,-1.87553633e-02,-5.14742322e-02,
     5.05825970e-03},
   {-3.30768479e-03,-2.56281830e-02, 8.85908827e-02,-5.85919954e-02,
    -1.00367784e-03},
   { 2.19316408e-02, 5.47667667e-02, 1.14357613e-01, 1.76534295e-01,
     4.73738313e-02},
   {-2.52452996e-02,-2.04404909e-02,-4.94823465e-03,-4.53233905e-02,
     9.99508053e-02}},

  {{-1.02197807e-02, 4.85313218e-03,-2.63761207e-02,-1.12027805e-02,
     1.29230410e-01},
   { 9.51884836e-02, 1.72457859e-01, 1.83915809e-01, 1.88551486e-01,
     1.98305652e-01},
   {-1.36159420e-01,-2.05482766e-02, 9.60137099e-02, 7.25043714e-02,
     7.69750252e-02},
   {-2.08881184e-01,-1.52526394e-01,-1.45545244e-01,-3.99154145e-03,
     3.91999818e-02},
   { 6.52369671e-03, 1.24746725e-01, 1.14991926e-01,-2.97098570e-02,
     4.12882827e-02}},

  {{ 4.66137752e-02, 2.47032233e-02,-3.48156095e-02,-1.28667252e-02,
     1.23951659e-01},
   { 1.33308712e-02,-1.13002546e-02, 1.18620634e-01, 2.13105336e-01,
     1.44642945e-02},
   {-1.06643766e-01, 7.66897872e-02, 1.04459479e-01, 2.04475373e-01,
     6.46707118e-02},
   {-2.35650480e-01,-1.34791762e-01,-2.01529235e-01,-7.30447024e-02,
    -2.25128792e-02},
   {-1.11502051e-01,-1.68531880e-01,-1.94755509e-01,-8.90845284e-02,
     7.34964898e-03}},

  {{-3.63591574e-02,-8.03938881e-02, 7.51017854e-02, 7.15607554e-02,
     9.06679779e-02},
   { 3.06106005e-02, 1.57295540e-01, 5.81370667e-02, 4.95696254e-02,
     1.23115003e-01},
   {-1.53987668e-02,-1.44994427e-02,-2.83078626e-02, 1.13973178e-01,
     1.78814843e-01},
   {-7.75391385e-02,-1.83670983e-01,-6.04282953e-02,-4.38969291e-04,
     8.45542401e-02},
   {-6.01724312e-02,-4.12524380e-02,-3.18391956e-02, 7.77354836e-02,
    -3.78647372e-02}},

  {{ 6.61472902e-02,-5.45806028e-02, 7.83682093e-02,-5.67450672e-02,
     5.86807095e-02},
   { 2.04160046e-02,-7.04517439e-02,-4.97321831e-03, 1.02917748e-02,
     4.78751957e-03},
   { 7.03846067e-02, 1.54544285e-03,-3.98983769e-02, 5.30278124e-02,
    -3.45417894e-02},
   { 4.88469973e-02, 6.58057332e-02, 1.21738620e-01, 2.08152249e-01,
     1.32244766e-01},
   {-1.35529116e-02, 7.05445232e-03,-1.49612082e-02, 1.36810005e-01,
     1.24313079e-01}},

  {{-3.28335278e-02,-3.43295112e-02,-1.07629441e-01,-8.05624276e-02,
    -8.49004462e-02},
   { 5.78266457e-02,-3.45430411e-02, 4.90013994e-02,-2.63034762e-03,
     7.05935508e-02},
   {-1.95663907e-02, 1.07179713e-02, 5.15723862e-02, 6.71401769e-02,
     9.75468680e-02},
   {-2.07698315e-01,-1.45856142e-01,-9.00605395e-02,-2.83906218e-02,
     8.14973861e-02},
   {-1.41419113e-01,-1.75471395e-01,-1.67663500e-01,-1.97327897e-01,
    -3.41050252e-02}}},


 {{{-3.19835022e-02,-1.84950195e-02, 4.72212806e-02,-6.58788681e-02,
     7.04695657e-02},
   {-4.31807898e-02,-7.58331716e-02,-9.30709764e-02,-1.68998614e-02,
     6.92083538e-02},
   {-9.45857018e-02, 4.86195832e-02,-4.37812041e-03, 5.91014586e-02,
     3.55286039e-02},
   {-1.42535195e-01,-9.47187543e-02, 5.14339060e-02,-5.62757663e-02,
     4.66400310e-02},
   { 2.67429166e-02,-5.46425916e-02,-6.72517344e-02,-1.15518337e-02,
     6.24677017e-02}},

  {{-1.10293582e-01, 7.71941571e-03, 9.27403197e-02, 6.25026524e-02,
     7.75702149e-02},
   { 2.64260694e-02,-1.29313609e-02, 4.76113968e-02, 9.12652388e-02,
    -7.97269642e-02},
   { 3.53190713e-02, 4.38427590e-02, 3.73636819e-02, 1.43686906e-01,
     1.07320502e-01},
   {-2.59072054e-02, 1.32160977e-01,-2.17561610e-02, 1.53746363e-02,
    -7.74062425e-02},
   {-3.18908505e-02,-1.51992785e-02, 4.59588952e-02, 8.17242637e-02,
     3.78287435e-02}},

  {{-4.97263111e-02,-9.87228006e-02,-6.31877482e-02,-1.18198365e-01,
    -1.94379371e-02},
   {-1.06527142e-01, 1.60815530e-02, 2.62520313e-02, 1.63655937e-01,
     2.49698516e-02},
   { 7.52660111e-02, 1.01515219e-01,-2.45107785e-02, 1.28999781e-02,
    -7.36572295e-02},
   { 1.48270220e-01,-2.77863666e-02,-7.70868585e-02,-5.59419543e-02,
    -4.02027136e-03},
   { 8.44103619e-02,-1.31698906e-01,-2.98904460e-02,-8.65368173e-02,
    -7.64722675e-02}},

  {{-1.47213548e-01, 7.99123272e-02, 1.46871964e-02, 1.04734942e-01,
     1.07278358e-02},
   {-1.43183284e-02, 7.80974254e-02,-2.21091826e-02, 5.84099032e-02,
     8.72855037e-02},
   { 5.60727604e-02, 7.23910332e-02,-2.75337454e-02, 2.60976013e-02,
    -4.31705266e-03},
   { 1.59662124e-02, 5.31690493e-02, 3.17888521e-02, 1.11388294e-02,
     8.85353163e-02},
   { 2.34515294e-02, 3.13794315e-02,-4.87468988e-02,-9.19155553e-02,
     4.69076782e-02}},

  {{ 3.86873223e-02,-1.16994865e-01,-6.32139444e-02,-3.39744166e-02,
    -8.14471114e-03},
   { 3.61557640e-02,-5.54907061e-02,-2.60374770e-02,-6.48584589e-02,
     9.97952744e-02},
   {-8.33309889e-02, 1.78131014e-02,-4.53688111e-03, 3.37498466e-04,
     3.00148949e-02},
   {-4.61792648e-02,-8.68036225e-02, 2.98956186e-02, 7.98775032e-02,
     1.02809034e-01},
   {-7.55061805e-02, 2.60245632e-02, 6.19243644e-02, 2.01463122e-02,
     1.27446815e-01}},

  {{-7.43633509e-02, 4.73850034e-02,-3.10183950e-02,-8.07602704e-02,
     2.20607799e-02},
   {-1.30125857e-03,-7.93889835e-02,-8.01784452e-03,-1.54785868e-02,
    -1.82494186e-02},
   {-8.41486827e-02, 5.27926497e-02, 1.03314765e-01, 1.76159471e-01,
    -1.95157509e-02},
   {-2.46487260e-02, 2.55046636e-02, 2.36701854e-02, 1.05743676e-01,
     1.60268083e-01},
   {-1.14674342e-03, 1.48558021e-01, 3.23242880e-02, 1.11517206e-01,
    -1.08905379e-02}}},


 {{{ 4.52129357e-02, 9.35349613e-02, 2.67584063e-02, 7.19438046e-02,
    -2.94290576e-02},
   { 2.67271195e-02,-8.06371868e-02, 3.28618400e-02, 1.22797191e-02,
     8.65632072e-02},
   { 8.44323784e-02, 6.73443899e-02,-7.25535750e-02, 1.09182100e-03,
     4.71493118e-02},
   { 2.48669385e-05,-3.68927196e-02,-8.97191241e-02, 2.75498778e-02,
    -1.25439733e-01},
   {-2.52061170e-02,-2.08730754e-02,-3.32954369e-04, 1.82598546e-01,
     5.49822487e-02}},

  {{ 3.13573703e-02, 3.93342637e-02,-1.02584576e-02,-1.33821890e-01,
    -7.49367848e-02},
   { 1.01738945e-01, 1.32207617e-01, 5.98128997e-02,-4.12407750e-03,
    -1.74286366e-01},
   {-2.89615206e-02, 9.44678560e-02, 6.56531304e-02, 7.82308504e-02,
     9.16060954e-02},
   { 8.83450732e-03,-6.75082430e-02, 1.10076785e-01, 1.04167059e-01,
     1.97901294e-01},
   {-7.37934113e-02,-1.00943767e-01,-2.55719814e-02, 1.30950641e-02,
     8.33871216e-02}},

  {{-1.74283776e-02,-1.18211024e-01,-5.68969222e-03,-2.52419747e-02,
     3.36348265e-02},
   {-6.61940053e-02, 6.76500204e-05, 3.18983756e-02,-9.44318846e-02,
    -1.38217777e-01},
   { 6.38424531e-02, 1.19980030e-01, 1.30252704e-01,-2.13019047e-02,
    -2.86215276e-01},
   {-7.04194307e-02, 2.38688383e-02,-1.03515778e-02, 1.98681295e-01,
    -2.82150004e-02},
   {-1.80960789e-01,-1.27890155e-01,-1.09570540e-01,-6.35266006e-02,
    -6.10564984e-02}},

  {{ 1.09190773e-02,-4.10436653e-03,-6.79688677e-02,-2.07896810e-02,
     6.08406700e-02},
   { 1.46061575e-04, 3.47186835e-03, 1.13947652e-01, 7.94590786e-02,
    -1.60075709e-01},
   { 5.51738776e-02,-1.12533107e-01,-9.16081145e-02, 1.20982900e-01,
     7.47544542e-02},
   {-6.65313154e-02, 1.06156990e-02,-3.81307565e-02, 3.14382650e-02,
     3.13065574e-02},
   {-8.75729248e-02,-3.12783420e-02,-3.66902426e-02,-1.14389108e-02,
    -8.17369595e-02}},

  {{ 4.31714766e-02,-6.09907471e-02,-7.44937062e-02,-1.07715234e-01,
     1.95368826e-02},
   { 2.85646040e-02,-4.69397120e-02,-7.87812918e-02,-1.32201370e-02,
     7.25506321e-02},
   {-4.28203493e-02, 3.97163257e-02,-1.03189781e-01,-4.74345945e-02,
     7.35868886e-02},
   { 7.36901462e-02, 7.22875893e-02, 3.50633776e-03, 8.69753137e-02,
     8.84879082e-02},
   {-5.36260568e-02, 9.91816372e-02, 1.15002535e-01, 2.32210845e-01,
     1.10284016e-01}},

  {{-6.84838220e-02,-5.87307326e-02,-1.36318922e-01,-5.61818108e-02,
    -7.98297673e-03},
   {-3.97977717e-02, 5.81911653e-02,-5.57966679e-02,-7.91698918e-02,
    -8.69510099e-02},
   {-6.35020360e-02, 1.14914648e-01, 2.31797412e-01, 1.44284433e-02,
    -2.13004336e-01},
   {-2.61238907e-02, 9.72083881e-02, 2.80869305e-01, 4.09442335e-01,
     1.29777953e-01},
   {-7.10467175e-02,-1.23943917e-01,-4.57816534e-02, 2.22930059e-01,
     2.89015889e-01}}},


 {{{ 7.27216601e-02, 2.01663505e-02, 3.47545408e-02, 1.46685150e-02,
    -4.91864458e-02},
   {-6.07071966e-02,-3.58193531e-03, 5.78242913e-02, 1.62427668e-02,
    -5.25416210e-02},
   { 4.37881611e-02, 1.06120616e-01, 4.18365076e-02, 4.00452167e-02,
    -3.23897637e-02},
   { 6.15321882e-02, 1.53025150e-01,-3.92432772e-02, 1.44808153e-02,
    -2.95813773e-02},
   { 8.34541321e-02, 6.99366406e-02,-8.03264230e-03,-2.11591041e-03,
    -3.99013124e-02}},

  {{-1.78848784e-02, 3.82603370e-02, 9.98714939e-02,-5.81473447e-02,
    -1.09674655e-01},
   { 1.03429444e-01,-1.85583588e-02, 2.31833216e-02,-3.25749777e-02,
    -5.08785539e-04},
   { 1.51144629e-02,-1.13376729e-01, 6.47862703e-02, 5.34650460e-02,
     3.40574495e-02},
   {-7.49871954e-02,-2.23247763e-02, 9.92314368e-02, 2.02839524e-02,
    -5.91989830e-02},
   {-2.78323758e-02, 1.16893863e-02, 3.31558660e-02, 2.40171906e-02,
    -2.80276500e-02}},

  {{ 1.11576021e-02,-6.87221438e-02,-1.46617338e-01,-1.25631168e-01,
    -6.37440532e-02},
   { 1.31642921e-02, 3.20486464e-02,-6.31284565e-02,-1.01719610e-01,
     1.26959709e-02},
   {-1.02954224e-01, 8.87480080e-02, 3.43066528e-02,-3.03476546e-02,
    -2.47487482e-02},
   { 4.61363001e-03,-5.04953377e-02, 1.28542036e-01, 2.52936065e-01,
     6.62051365e-02},
   { 8.40687677e-02, 1.25452876e-03, 1.60986751e-01, 1.86131701e-01,
    -8.30032229e-02}},

  {{-1.17188059e-02, 4.19147452e-03, 3.70926298e-02,-1.02451658e-02,
    -1.75768837e-01},
   { 4.09145169e-02,-1.36631895e-02, 9.64995027e-02, 5.34355566e-02,
    -8.76065791e-02},
   { 8.49051178e-02,-5.99643867e-03,-3.20229456e-02,-2.99369227e-02,
     7.11010844e-02},
   {-4.86049019e-02, 5.33385724e-02, 1.43334433e-01,-4.77300398e-02,
     2.89200433e-02},
   { 8.94053355e-02, 6.93995431e-02, 2.15775874e-02, 2.83939540e-02,
     6.92385659e-02}},

  {{ 8.77666920e-02, 4.94322777e-02,-2.07891259e-02,-1.03300653e-01,
    -1.25108376e-01},
   { 8.42400938e-02, 2.04210822e-02, 1.41142746e-02,-7.88043886e-02,
    -1.20278202e-01},
   { 5.86606301e-02, 1.37484118e-01,-5.38868047e-02,-4.87145409e-02,
    -4.14609537e-02},
   {-9.26957559e-03, 4.47794870e-02, 4.45258357e-02,-1.03331752e-01,
    -4.92530540e-02},
   { 5.62324338e-02,-9.56727788e-02,-5.31452633e-02,-2.23531835e-02,
     2.53959978e-03}},

  {{ 1.11357979e-01, 8.86886343e-02,-2.63468102e-02,-9.03750584e-02,
    -1.43867597e-01},
   {-1.76341191e-03, 5.15614152e-02, 4.19245809e-02,-1.25635386e-01,
    -6.20451234e-02},
   {-1.24971427e-01,-1.63311195e-02, 1.55317217e-01, 9.65168178e-02,
    -1.26315504e-02},
   {-8.50009546e-03,-4.94148806e-02, 3.63087654e-02, 2.97384057e-02,
    -3.62112336e-02},
   {-6.38319831e-03,-7.07901791e-02,-9.78562906e-02,-1.99647737e-04,
     1.04786187e-01}}},


 {{{ 9.29581299e-02, 3.94289270e-02,-1.29825026e-01,-9.86196175e-02,
    -7.52770454e-02},
   { 3.81018259e-02,-1.28141761e-01,-5.24947532e-02, 2.06272453e-02,
    -2.67583821e-02},
   { 5.38302548e-02,-1.20886274e-01,-1.83905110e-01,-1.16633549e-01,
    -1.30807623e-01},
   {-9.72389709e-03,-6.26455173e-02,-8.17249566e-02, 2.84333024e-02,
    -6.91674426e-02},
   { 5.27606085e-02,-6.65179938e-02,-3.08096707e-02, 5.21800071e-02,
    -1.00238904e-01}},

  {{-1.20568343e-01, 2.25296468e-02, 5.95955811e-02,-6.74067065e-02,
    -1.57919869e-01},
   {-1.09313309e-01, 5.00841886e-02,-3.95455025e-02,-5.96742854e-02,
    -1.33388832e-01},
   {-1.48421094e-01, 1.17272767e-03,-2.32315119e-02, 6.84244111e-02,
    -1.00270808e-01},
   {-6.81523681e-02,-5.24330139e-02, 5.82020544e-02, 6.16826070e-03,
     2.24084985e-02},
   {-3.00058853e-02, 2.35607233e-02, 4.14971299e-02, 4.63020541e-02,
     5.07528484e-02}},

  {{-2.72607535e-01,-9.15166587e-02, 3.04001242e-01, 1.62663102e-01,
    -6.49853572e-02},
   {-1.95295423e-01, 9.76778939e-02, 4.82117325e-01, 5.63026294e-02,
    -1.66679680e-01},
   {-1.71309948e-01, 2.49880701e-01, 3.12489778e-01,-1.59882039e-01,
    -1.12487465e-01},
   {-2.36183535e-02, 1.26347512e-01, 1.59066826e-01, 5.56219835e-03,
    -1.33859172e-01},
   { 5.10431230e-02, 6.51175231e-02, 9.87215247e-03,-7.60750249e-02,
     9.32201371e-03}},

  {{-1.52882323e-01,-2.37493701e-02, 4.82271984e-03, 9.84883755e-02,
     5.61478455e-03},
   {-1.04736323e-02,-7.65462369e-02,-3.91806103e-02,-5.70281222e-02,
    -3.66450585e-02},
   {-1.26587614e-01, 2.61567216e-02, 3.60241346e-02,-4.71964628e-02,
     2.56070103e-02},
   {-8.51263925e-02,-1.39147863e-02, 3.00843883e-02,-2.80465558e-02,
     4.09893356e-02},
   { 6.87445328e-02,-4.29848842e-02,-1.21346243e-01, 6.86648563e-02,
     1.02932565e-01}},

  {{-7.78115392e-02,-4.45426404e-02,-4.22048159e-02,-1.02395229e-01,
     5.21408394e-02},
   {-4.58355881e-02,-1.07950047e-01,-1.65433317e-01,-1.63642630e-01,
    -1.01399072e-01},
   {-4.40474674e-02,-1.48009405e-01,-1.13820836e-01,-1.17448866e-01,
    -7.25771710e-02},
   {-3.22476923e-02,-1.30457282e-01,-1.17668897e-01,-6.83400705e-02,
     6.36455193e-02},
   {-1.35274813e-01,-3.89479399e-02,-6.63505122e-02,-7.40154460e-02,
    -4.65599559e-02}},

  {{-2.07655415e-01, 3.19635384e-02, 3.74247134e-02,-1.41616585e-02,
    -1.27363741e-01},
   {-1.10622503e-01,-5.57362996e-02,-1.14567410e-02,-5.02908491e-02,
    -2.01123841e-02},
   {-1.62756070e-01,-1.07417367e-01, 5.00244908e-02,-1.99668203e-03,
    -9.77984071e-02},
   {-5.53148724e-02,-5.68834953e-02, 1.72292843e-01, 7.73750544e-02,
     2.13456824e-02},
   {-1.93012625e-01,-3.54354158e-02, 1.64025510e-03, 8.37906525e-02,
    -6.78519905e-02}}},


 {{{ 8.19458347e-03, 2.92234402e-02, 1.32752331e-02,-3.03821079e-02,
     6.99940324e-02},
   {-3.16920355e-02,-2.81751174e-02, 3.66505198e-02,-6.94322586e-03,
     1.53899631e-02},
   {-4.98825647e-02, 2.40400750e-02, 3.90404388e-02,-1.19680455e-02,
     2.69334875e-02},
   {-5.35329133e-02, 1.02549471e-01,-2.99196523e-02, 1.90745480e-02,
    -4.17583287e-02},
   {-1.11568138e-01, 3.31808515e-02,-1.04731947e-01, 5.68702482e-02,
     7.52722025e-02}},

  {{-1.21460237e-01, 3.79118659e-02, 4.17241529e-02,-5.89507595e-02,
    -8.07672143e-02},
   {-7.42652640e-02, 5.53429797e-02,-7.41311442e-03, 3.27510014e-02,
     1.91742275e-02},
   {-7.74904266e-02,-8.13124850e-02,-8.00789595e-02,-6.40990660e-02,
    -1.42449457e-02},
   {-3.31020169e-02,-1.03242792e-01,-1.31767854e-01, 1.97917446e-02,
    -5.90105392e-02},
   { 4.53367829e-02,-1.83364302e-02, 2.95842774e-02,-2.21047122e-02,
    -1.13140913e-02}},

  {{-5.77120930e-02, 1.80793911e-01, 1.34985566e-01, 4.72021624e-02,
    -1.29025757e-01},
   { 1.73595473e-02, 2.43359506e-01, 2.21600205e-01,-7.09916055e-02,
    -1.32751241e-02},
   { 9.15000141e-02, 2.53388226e-01, 5.27021363e-02,-9.77370664e-02,
    -3.09130410e-03},
   { 4.43761144e-03, 1.53272659e-01,-2.58425802e-01,-2.48338923e-01,
    -2.66594999e-02},
   { 7.41534159e-02, 7.61506557e-02,-4.29552868e-02,-2.12605949e-02,
     2.64103664e-03}},

  {{-7.88480714e-02, 4.98717502e-02, 9.76338163e-02, 3.76339555e-02,
    -6.83567896e-02},
   { 7.98895210e-03, 3.71954925e-02, 1.02054678e-01,-1.23955235e-01,
    -1.16590373e-01},
   {-2.22174674e-02, 3.33299674e-02,-1.40064448e-01,-1.30964383e-01,
    -3.28870453e-02},
   { 5.36343083e-04,-1.20025493e-01, 1.98990665e-02,-1.05239995e-01,
    -8.89209509e-02},
   {-7.29211122e-02,-7.97202066e-03, 6.90797064e-03,-5.54764410e-04,
    -5.87933324e-02}},

  {{-1.02977142e-01, 2.19661742e-02,-3.94091345e-02, 3.80085967e-02,
     6.17113300e-02},
   {-3.34366336e-02,-6.79223910e-02,-1.27072871e-01,-6.17575943e-02,
     6.29599318e-02},
   {-2.75442917e-02, 3.16147506e-02, 2.60223262e-02,-8.64680507e-04,
     7.74880573e-02},
   { 4.07017358e-02, 1.05427012e-01,-3.46369445e-02,-8.61300603e-02,
     6.16969764e-02},
   {-5.94621785e-02, 1.00718904e-02,-5.54011809e-03, 2.32682680e-03,
     4.51249965e-02}},

  {{-1.67726144e-01,-1.17201224e-01,-5.66816777e-02,-9.74216908e-02,
    -7.94977918e-02},
   {-7.35149195e-04,-7.06627208e-04,-4.19903733e-02,-1.05297960e-01,
    -7.65037984e-02},
   { 3.09178252e-02, 2.55376101e-02, 5.29029109e-02,-1.03713289e-01,
    -1.03633016e-01},
   {-1.13904968e-01,-2.44651698e-02,-5.36297187e-02,-1.69419020e-01,
     3.16642784e-02},
   {-1.44204974e-01,-1.30356504e-02,-6.41408637e-02,-3.67225930e-02,
    -8.18581805e-02}}}};
const float net0_conv1_bias[16] = {-0.00664341,-0.0012027 , 0.00557249,-0.01219155,-0.05760956, 0.00563107,
 -0.06857938,-0.10676343, 0.00775461, 0.00704908, 0.02893347,-0.00613057,
 -0.04840155,-0.01757854,-0.01710959, 0.01072885};
const float net0_dense0_weight[10][256] = {{ 1.32455289e-01, 4.58763838e-02,-1.23718686e-01,-7.44672492e-02,
   1.45062000e-01,-1.52620643e-01,-1.31048799e-01,-6.86985180e-02,
  -7.52191916e-02,-1.26775965e-01,-4.06366996e-02, 4.54018414e-02,
  -4.74466458e-02, 1.31569296e-01, 1.17641278e-01,-1.17265344e-01,
  -5.29916845e-02, 1.22165143e-01,-5.53958565e-02, 1.80401560e-02,
   1.44877508e-01,-1.49927009e-02, 1.05404630e-02,-1.81340098e-01,
   1.04834534e-01,-6.52238131e-02,-1.02261171e-01, 4.94001471e-02,
  -6.17158748e-02,-5.45511916e-02,-1.49727603e-02, 1.19877979e-02,
  -9.19178575e-02,-3.04763727e-02, 1.25846282e-01, 1.42923832e-01,
  -8.29537492e-03, 9.18973535e-02, 9.34024975e-02, 1.29466459e-01,
   6.64422289e-02, 7.81580620e-03, 2.92585269e-02, 7.28409514e-02,
   3.76928225e-02, 9.10498872e-02,-1.33608580e-01,-8.11512545e-02,
   6.58783913e-02, 2.32735611e-02, 7.07753375e-02,-3.07197738e-02,
  -1.30837455e-01, 1.50808487e-02, 4.83807623e-02, 1.18862227e-01,
   3.77541818e-02,-1.17980689e-01,-1.71348140e-01,-9.64367464e-02,
   1.71794981e-01,-4.19877097e-03,-8.66912827e-02, 8.33077505e-02,
  -3.24634351e-02,-1.95393767e-02, 8.19251910e-02, 4.62297574e-02,
   1.01498418e-01, 1.82007328e-01,-7.53651187e-02, 6.46006390e-02,
   3.77531536e-02,-4.88232411e-02,-1.30971044e-01,-9.68045294e-02,
   1.51786536e-01, 6.66743442e-02,-1.77837670e-01,-1.55381948e-01,
   1.46473587e-01, 3.16556618e-02,-5.25786774e-03, 1.86878201e-02,
   1.21527709e-01, 7.68674910e-02,-8.48352611e-02,-9.18435082e-02,
  -2.11141869e-01,-7.91809335e-02, 7.21524134e-02,-1.24783233e-01,
  -4.32639979e-02,-3.46954092e-02,-7.29281828e-02, 4.45505828e-02,
   2.66967323e-02, 1.74857274e-01,-1.42264217e-02, 8.60324409e-03,
  -3.71558070e-02, 2.86728311e-02,-3.52125391e-02,-3.06322705e-03,
  -1.86845921e-02,-1.76266789e-01,-3.09284474e-03,-9.25723538e-02,
   1.68678507e-01, 1.94380522e-01,-2.33573653e-02, 1.43539347e-02,
   2.99406238e-02,-3.84612344e-02, 3.30276601e-02,-1.56652540e-01,
  -6.75904974e-02, 1.59924731e-01,-7.42528141e-02,-7.55836815e-02,
   1.89039558e-02, 5.98326176e-02,-3.33833881e-02, 8.60154778e-02,
   7.98904300e-02, 6.91756047e-03, 7.54426140e-03, 9.48698297e-02,
   1.09475575e-01,-1.01319430e-02,-2.56571244e-03,-7.15429336e-02,
  -1.28468812e-01, 6.92237765e-02,-2.59756017e-02,-1.30556047e-01,
  -1.25862345e-01,-9.81780812e-02,-5.88711686e-02, 3.73228826e-02,
  -6.42026290e-02, 5.09338127e-03, 1.09930396e-01, 6.19498603e-02,
   1.01527236e-01,-1.58533510e-02, 5.44623937e-03, 6.70350119e-02,
  -6.96788356e-02, 5.82177378e-03,-2.66198255e-02,-1.21407934e-01,
  -7.18822405e-02,-1.36467651e-01,-8.19438174e-02, 1.30816728e-01,
  -4.86529134e-02, 3.62978950e-02, 4.08219360e-02, 2.34737605e-01,
  -7.49066025e-02,-1.34303980e-02,-3.80799808e-02, 1.11577131e-01,
  -1.15246989e-01,-1.47327751e-01,-8.93460810e-02, 1.93534002e-01,
  -1.01206250e-01,-8.14016610e-02,-2.09841058e-01, 1.43785045e-01,
   1.28183351e-03, 6.02089204e-02,-5.21361604e-02, 9.36922580e-02,
   1.97593719e-02, 6.87417313e-02, 5.86361066e-02, 1.84533652e-02,
   7.68983588e-02, 4.83341515e-02, 1.21421017e-01,-1.32247001e-01,
   1.15880355e-01,-2.84856893e-02,-1.13718972e-01,-1.34473950e-01,
   4.56083938e-02, 8.12332928e-02,-3.84687334e-02, 4.21921462e-02,
  -1.61402315e-01, 3.73263732e-02, 1.28684506e-01, 1.70091599e-01,
  -7.30575472e-02,-2.17695951e-01, 9.21856016e-02,-1.28318906e-01,
  -3.92051265e-02, 4.86166254e-02,-6.09893724e-02,-8.21733773e-02,
   6.07663505e-02, 1.71403326e-02,-3.31903845e-02,-8.04254636e-02,
   5.24114147e-02,-3.55536900e-02, 7.86481947e-02, 1.12720013e-01,
   7.28409961e-02,-5.70605993e-02,-1.08277366e-01, 1.25136390e-01,
   6.36522844e-02,-1.81924943e-02,-2.21894495e-02, 9.66248661e-02,
   5.40870354e-02, 9.40691158e-02,-1.34346902e-01,-1.76900223e-01,
   6.02380186e-02,-5.69133041e-03,-5.91445044e-02,-5.74522652e-04,
   6.91521689e-02, 1.11701041e-02, 3.94606553e-02, 1.13027394e-01,
   1.28742158e-01, 1.05180144e-01,-1.39404818e-01, 1.89878568e-02,
   6.87234029e-02, 9.68913659e-02,-1.30986571e-01,-4.25546989e-02,
  -1.00564279e-01,-1.05184905e-01,-1.30580142e-01,-4.63703871e-02,
   2.06446997e-03,-3.03564947e-02,-4.17072736e-02, 5.56482375e-02,
  -5.88152036e-02, 6.69096708e-02,-1.12604655e-01, 4.99889664e-02,
  -1.36696950e-01, 2.20791120e-02,-2.87545100e-02, 8.51879567e-02},
 { 2.71609984e-02,-1.02727100e-01, 1.71013493e-02,-6.88560233e-02,
  -1.08322069e-01,-9.13656801e-02, 3.03933118e-02, 6.17772974e-02,
   8.37671012e-02,-7.98350126e-02, 1.21668108e-01, 8.44670609e-02,
  -5.41547537e-02, 1.28026195e-02,-7.04536028e-03, 9.06999484e-02,
   6.43125772e-02, 1.98310524e-01, 2.42790490e-01, 1.24072000e-01,
  -7.82525986e-02, 1.00117305e-03, 3.28563191e-02, 1.86938807e-01,
   1.94867328e-02, 2.44261414e-01, 5.77939339e-02,-3.67655307e-02,
   7.71778747e-02, 1.87712058e-01, 4.13629133e-03, 2.02563535e-02,
  -2.71458868e-02,-4.21512425e-02, 8.56627077e-02, 3.77522074e-02,
  -1.57250613e-01, 3.66420206e-03, 2.82223877e-02,-2.87221223e-02,
  -1.41990289e-01, 1.56448618e-01, 1.16807647e-01, 5.25005944e-02,
  -1.17802374e-01,-2.27590334e-02, 9.18390453e-02,-7.70476758e-02,
   4.44013886e-02, 9.95250419e-02,-7.25749955e-02, 1.27707765e-01,
  -5.17078973e-02, 3.34238261e-02,-1.12714492e-01,-3.75414081e-02,
  -6.10354766e-02,-1.60677403e-01, 8.05904046e-02, 6.84303418e-02,
  -1.85911015e-01, 1.54131055e-01, 2.57707447e-01, 4.31834348e-02,
  -1.25662506e-01, 1.43880650e-01, 2.62124032e-01,-1.40622899e-01,
  -5.91909736e-02,-6.33359700e-02, 1.63203448e-01, 5.97579367e-02,
  -8.96805376e-02,-6.17476366e-02, 4.86592762e-02, 8.98181498e-02,
   1.41090795e-01,-5.41744269e-02, 8.71413201e-02,-4.64537181e-02,
  -4.15458865e-02,-1.28578514e-01,-9.32432041e-02,-8.20409730e-02,
   9.07095894e-03,-4.50996161e-02,-5.08085229e-02, 7.83390775e-02,
  -6.12419210e-02,-3.73861454e-02, 1.38015719e-02, 7.37309232e-02,
   2.02563137e-01, 9.45905074e-02, 8.41633454e-02, 1.46055035e-02,
   7.86133707e-02, 1.01913638e-01, 1.17369806e-02,-2.18903750e-01,
  -9.97987017e-02, 1.83695987e-01,-8.52293223e-02,-1.22830048e-02,
  -1.22392341e-01,-3.07738613e-02,-2.11708754e-01,-1.69334069e-01,
   1.83735620e-02,-1.28063217e-01,-3.22761014e-03, 1.07831672e-01,
   3.02909464e-02,-1.11435376e-01,-7.92321470e-03, 1.35460600e-01,
  -1.26622498e-01,-2.49596804e-01,-4.59372737e-02, 8.71765241e-02,
   3.09827831e-02,-2.58171260e-02, 1.08205363e-01,-7.04084709e-02,
  -1.21327884e-01, 5.25868237e-02,-3.17502469e-02,-6.79800957e-02,
  -1.06066249e-01,-2.51604825e-01,-8.31931308e-02, 3.81880850e-02,
   9.99855809e-03,-2.10597187e-01,-1.41304284e-02,-1.28923669e-01,
  -7.28489757e-02, 2.84980163e-02,-1.29146382e-01, 3.41673270e-02,
  -8.32802653e-02, 2.32275780e-02,-1.16403565e-01,-1.22552313e-01,
  -1.71872139e-01, 2.11780608e-01, 1.15242742e-01, 3.05370148e-02,
   7.02375621e-02, 2.08407238e-01, 6.03679270e-02,-8.74953791e-02,
   8.47822055e-03, 2.45374501e-01, 2.94377599e-02,-3.05906608e-04,
   1.13142982e-01,-1.34380892e-01,-4.26894426e-02, 9.04120728e-02,
   7.16994330e-02,-4.72359173e-02,-4.11574244e-02,-5.64204790e-02,
  -5.36101088e-02,-3.17907259e-02, 2.45597027e-02,-5.89879863e-02,
  -6.80049583e-02, 2.31960621e-02, 7.88358301e-02, 3.48781869e-02,
  -1.05843775e-01, 3.32392007e-02, 2.83533596e-02, 2.36285895e-01,
  -1.41052390e-03,-1.52837113e-01,-8.70038569e-02, 1.43076748e-01,
  -7.13211372e-02,-1.32376850e-01, 1.02568015e-01, 1.37116369e-02,
   4.77615260e-02, 2.79896241e-02, 1.46496132e-01,-1.30617902e-01,
   9.71119758e-03,-3.05705648e-02, 8.12567249e-02, 1.07561380e-01,
  -1.08453244e-01, 4.42155525e-02,-1.81035027e-01,-8.20115432e-02,
   2.15273369e-02,-9.82546955e-02,-1.79873377e-01, 8.54191855e-02,
  -8.88179690e-02,-1.92102328e-01, 4.08989936e-02, 9.90446191e-03,
  -1.11756809e-01,-5.59685268e-02, 1.73824653e-01, 1.91692799e-01,
  -7.59103447e-02, 1.82371214e-01,-3.79625931e-02, 1.07569117e-02,
   5.01093408e-03, 1.11645922e-01, 6.93648905e-02,-8.98443609e-02,
   4.43237796e-02, 1.67715162e-01,-2.25025773e-01,-4.57517654e-02,
   5.35558388e-02, 2.39387304e-02,-2.64120754e-02, 1.08150199e-01,
  -1.22474186e-01, 2.63908923e-01, 2.67011046e-01, 2.09708109e-01,
   4.92641190e-03,-6.97789416e-02,-2.51784660e-02, 2.24807411e-01,
  -7.73033127e-02, 1.30209457e-02,-6.41860859e-03,-1.14259079e-01,
   1.03248723e-01, 1.54708654e-01, 4.53394130e-02, 2.21651588e-02,
   9.61352661e-02,-5.98078668e-02, 1.17416061e-01, 1.16779108e-03,
  -8.69510770e-02, 2.80509926e-02,-6.09252378e-02,-2.77877804e-02,
   7.50653222e-02,-5.42315701e-03,-5.22233406e-03,-4.47069407e-02,
   1.52591795e-01, 9.95131135e-02, 7.58819282e-02, 2.24850122e-02},
 { 1.52708009e-01,-4.46246937e-02,-1.72050551e-01, 2.44096685e-02,
   2.07854033e-01,-9.65519473e-02,-1.22204013e-02, 1.45280749e-01,
   7.27661401e-02, 6.57901987e-02,-9.97430012e-02, 5.73223196e-02,
   1.37413457e-01, 4.65271026e-02, 1.96166068e-01, 2.29488537e-01,
  -1.32212102e-01, 2.87368591e-03,-1.28668964e-01,-1.42601281e-01,
   5.23617528e-02,-1.47013769e-01,-8.12287182e-02,-1.03850581e-01,
   1.41685218e-01, 2.93270126e-02,-4.34857160e-02, 1.36568412e-01,
   2.48684376e-01, 1.05432793e-01,-1.90338954e-01,-2.95345020e-02,
  -5.26269302e-02,-4.72973883e-02, 1.83484286e-01, 9.36486945e-02,
  -2.11965665e-01,-2.95717776e-01, 9.18675289e-02,-3.03263441e-02,
  -5.82709871e-02,-1.33665372e-02,-1.46431178e-02,-1.98398769e-01,
   3.06729138e-01, 7.67194703e-02,-1.67839769e-02,-1.57137409e-01,
   1.40487775e-02, 7.74591118e-02,-7.39021674e-02,-2.87289649e-01,
   2.02977881e-01, 5.32485312e-03, 1.47709353e-02,-7.32242018e-02,
  -1.09969918e-02, 1.13361059e-02,-2.12254040e-02, 1.83417141e-01,
   6.05107471e-02, 6.57592118e-02, 1.38888927e-02, 9.28539410e-03,
  -1.99253142e-01,-9.96315554e-02, 7.99788460e-02, 1.17886476e-01,
  -1.51788831e-01,-1.59809858e-01,-2.05807313e-02,-4.52501811e-02,
  -7.61952847e-02,-2.55121458e-02,-4.98613715e-02,-2.07447052e-01,
   1.50639966e-01, 4.37367745e-02,-1.19894736e-01, 2.17943229e-02,
  -4.60178480e-02, 8.61311704e-02,-5.92730306e-02,-1.14604473e-01,
   2.19607502e-01, 5.67041747e-02, 8.24238360e-02,-1.27768051e-02,
   1.62777632e-01, 7.45181069e-02,-1.37022972e-01, 1.81153283e-01,
  -1.50150299e-01,-1.27379507e-01, 2.81472001e-02, 2.26203650e-01,
  -5.29093621e-03, 9.47347507e-02, 3.17579284e-02, 1.28660575e-01,
  -1.19579002e-01, 7.25840451e-03, 9.30577517e-02,-7.87602663e-02,
  -1.82488352e-01,-5.45213185e-02,-9.07456428e-02, 5.67194894e-02,
  -2.47462288e-01,-2.20429283e-02, 8.21761191e-02, 2.03595534e-01,
  -9.44955181e-03,-3.28227598e-03,-1.24690108e-01,-1.27545953e-01,
  -7.64497090e-03,-3.06173954e-02,-1.10869393e-01, 1.54899070e-02,
   6.83212504e-02,-3.14263888e-02, 1.76365778e-01, 1.75554052e-01,
   1.14836104e-01, 9.37050879e-02, 5.30479439e-02,-7.07138255e-02,
   8.39146376e-02,-6.85341060e-02, 5.36006279e-02,-1.82843223e-01,
   1.41196817e-01, 7.53116980e-03,-3.07966433e-02,-1.68606043e-01,
  -3.74022350e-02, 1.16316266e-01,-9.33492854e-02, 2.09494501e-01,
  -7.30485618e-02, 1.35629792e-02, 1.24497339e-01, 1.18085437e-01,
   1.29304025e-02, 7.84206912e-02,-6.87608719e-02,-1.32864267e-01,
   3.32131125e-02, 1.24839857e-01, 6.03866950e-02,-1.90509260e-01,
   9.33700651e-02,-2.31988952e-02,-2.62015294e-02, 7.04499409e-02,
   1.35139346e-01,-5.03799506e-02, 3.82472239e-02, 1.28829345e-01,
   1.87799394e-01, 1.90160513e-01, 1.01307824e-01, 5.83761968e-02,
   3.37742059e-03, 8.83227661e-02,-9.25069600e-02,-5.33182397e-02,
  -9.72678289e-02,-9.52993557e-02, 1.28615245e-01, 6.75549507e-02,
  -5.11785410e-02, 7.35599175e-02,-9.39376652e-02, 2.49322146e-01,
   6.56470060e-02,-6.41362648e-03,-2.25200161e-01, 8.75094719e-03,
   5.03061302e-02, 9.91715863e-02,-1.46962881e-01,-8.70645940e-02,
   2.60787969e-03, 1.47339314e-01,-1.01439647e-01, 2.92680021e-02,
   1.41303420e-01, 4.32866253e-02, 7.14859292e-02,-3.03088371e-02,
   5.90211190e-02, 7.85656646e-02, 2.37903260e-02, 3.74632180e-02,
  -1.11907395e-02,-6.07277080e-02,-1.18492521e-01,-9.97225717e-02,
  -2.84768194e-01,-1.91363133e-02,-2.74074413e-02, 3.58556658e-02,
   8.34143069e-03, 8.39275494e-03, 2.44891554e-01, 1.77563965e-01,
  -1.22343771e-01, 1.19111046e-01, 6.53214157e-02,-5.45882173e-02,
   1.51361480e-01, 7.23837093e-02,-2.49633398e-02, 1.43514364e-04,
   7.51575753e-02, 2.74318382e-02, 1.89052373e-01,-2.91757975e-02,
  -6.18200563e-02,-9.42050219e-02, 1.51436463e-01,-2.56151110e-02,
  -9.14795250e-02,-7.30484426e-02,-1.80765390e-01,-1.87162235e-02,
  -1.52487054e-01,-5.96663281e-02, 8.17967877e-02, 1.39115695e-02,
  -1.23022519e-01,-4.20208611e-02,-2.90276408e-02, 1.47746652e-01,
   8.31444114e-02, 1.44660252e-03,-3.92442867e-02,-1.02444977e-01,
   4.78052534e-02, 6.28565103e-02,-2.30210185e-01,-1.28225386e-01,
   1.20917909e-01,-4.85563837e-03,-8.06467682e-02, 1.06020741e-01,
   2.53527593e-02, 2.87329555e-02, 7.90095702e-02, 1.24569595e-01,
  -3.30312289e-02,-4.38999347e-02,-9.39843506e-02,-1.51256219e-01},
 {-1.10574581e-01,-5.86751476e-02, 3.13722193e-02,-7.68297464e-02,
  -8.19898918e-02,-7.77131617e-02,-7.18553439e-02,-1.34195779e-02,
  -1.07303351e-01, 8.27696100e-02, 1.18420795e-02, 1.01386361e-01,
   1.26701921e-01,-2.14638133e-02, 4.17403355e-02,-8.23448077e-02,
  -7.62410164e-02,-1.58551820e-02,-4.18169834e-02, 4.19961214e-02,
  -2.68529385e-01,-1.13064282e-01, 5.93834743e-03, 7.78178573e-02,
  -4.61655632e-02,-1.91533610e-01,-1.72344074e-01, 1.23847947e-01,
   5.15951477e-02, 4.40092459e-02, 4.72322330e-02,-5.42325107e-03,
  -2.85087705e-01,-5.32715544e-02,-6.32716417e-02,-5.38749807e-02,
  -6.27495721e-02, 3.68677825e-02,-2.20852271e-01,-8.06215778e-02,
  -2.64130756e-02, 9.25366953e-02,-1.08004585e-01,-6.59822524e-02,
  -1.47358805e-01,-2.37730011e-01,-6.14540465e-02, 1.57969445e-01,
   1.10205702e-01, 2.86116023e-02, 5.15042320e-02,-1.40358493e-01,
  -1.72055215e-01,-2.55200081e-02,-3.92651698e-03, 4.57855128e-03,
   1.04501702e-01,-6.22685850e-02, 2.64532659e-02,-5.32901175e-02,
   1.05585985e-01,-5.39110936e-02,-1.82587028e-01,-5.04006743e-02,
  -1.39621854e-01,-1.42460838e-01, 1.89061552e-01, 1.54645860e-01,
  -1.89323008e-01,-8.13625455e-02,-1.55905813e-01,-8.38654339e-02,
  -9.16058272e-02,-1.54926211e-01, 3.30840535e-02, 1.22590542e-01,
   8.36641863e-02,-1.12875834e-01,-5.02670109e-02, 1.13270566e-01,
   8.32262784e-02,-4.03481685e-02,-1.02078058e-01,-7.80140981e-02,
  -6.93778321e-02, 1.91064607e-02,-5.12507409e-02, 9.88943595e-03,
   1.20225556e-01,-1.33634984e-01,-1.44147962e-01,-1.04535684e-01,
   2.42778629e-01, 6.22330345e-02, 6.50083181e-03, 6.52038530e-02,
   1.66189805e-01, 1.79651141e-01, 6.49101958e-02,-5.89156002e-02,
  -1.33307412e-01,-1.31020725e-01, 4.81505021e-02, 9.71562564e-02,
  -1.12970568e-01,-1.47456259e-01,-1.34611633e-02, 1.05655491e-01,
   9.15490165e-02,-5.13367169e-02, 1.53058395e-01, 8.28248728e-03,
  -1.49412379e-01,-5.77941015e-02, 8.66896361e-02, 1.24006070e-01,
  -1.27137214e-01, 1.32022006e-02, 1.55271515e-01, 1.70415938e-01,
  -4.29242924e-02,-1.13984257e-01,-1.71107098e-01,-1.26284715e-02,
  -2.02957615e-01,-1.21666834e-01,-6.88664392e-02, 2.51906991e-01,
   2.32266501e-01, 1.69963568e-01,-2.05991305e-02,-1.57337129e-01,
   1.91028133e-01, 1.54369727e-01, 5.40401191e-02, 1.71813175e-01,
   6.03833012e-02, 1.09967172e-01, 1.97391480e-01,-8.67774636e-02,
   1.12851731e-01, 1.46189064e-01,-7.73580894e-02,-2.12804787e-02,
  -1.84399746e-02,-1.41993225e-01,-1.22971058e-01,-1.02451466e-01,
   5.65648526e-02, 4.12121713e-02,-9.54933688e-02, 2.05050439e-01,
   1.00269698e-01, 1.35078244e-02, 1.82016455e-02, 1.95990559e-02,
  -4.32844907e-02,-1.15472049e-01,-2.93779490e-03, 4.80953604e-02,
   1.34573862e-01, 1.21639535e-01, 1.37447134e-01,-2.02207148e-01,
   2.41600111e-01, 1.29345372e-01,-3.00325323e-02,-9.57955196e-02,
   1.84462667e-01, 2.31924936e-01, 4.51852195e-02,-5.32506220e-02,
  -5.87022910e-03, 7.72164464e-02,-1.71567872e-01,-1.65290505e-01,
   6.20762445e-02,-2.03581497e-01,-2.36933231e-01,-5.57981506e-02,
   7.63537809e-02,-4.63272259e-02, 6.28401041e-02, 3.16901170e-02,
  -8.12699720e-02, 5.28018326e-02, 6.13119220e-03, 6.45963401e-02,
   3.12332064e-02, 9.17753577e-02, 9.81504172e-02, 1.18898712e-01,
  -7.93849751e-02,-1.30506724e-01,-3.68345901e-02,-5.02212718e-02,
  -2.20011204e-01, 1.82172164e-01, 1.93058908e-01, 2.27476377e-02,
   1.20014079e-01, 1.21026725e-01, 3.63439545e-02,-1.09110512e-02,
   1.27315089e-01,-1.61397666e-01,-4.38275486e-02,-1.62062302e-01,
  -8.62211734e-02, 4.78384942e-02, 1.81698166e-02, 8.41688644e-03,
   2.30446476e-02, 1.12439074e-01, 7.26636350e-02,-1.33525357e-02,
  -7.04598427e-02,-1.28237233e-01,-6.59471452e-02, 4.67236750e-02,
   1.71938449e-01, 8.26741010e-02, 1.30234823e-01, 4.13732901e-02,
  -1.39890298e-01,-1.91482976e-01,-1.54885963e-01, 1.05472058e-01,
  -4.34265547e-02,-2.67311215e-01, 2.66870987e-02, 4.02607173e-02,
  -9.24980734e-04, 1.13830641e-01,-1.66247634e-03,-1.86449930e-01,
  -1.63693786e-01,-1.85324147e-01,-2.03374952e-01, 1.32176444e-01,
  -2.38043889e-02,-1.28281519e-01, 6.61798054e-03,-1.02683455e-01,
   8.62232372e-02, 1.05940238e-01,-1.67511106e-01, 8.86098817e-02,
   3.45768668e-02, 6.84919357e-02, 9.19910669e-02,-2.36248355e-02,
  -5.85867874e-02, 1.85433924e-02,-7.30517879e-03, 1.44606248e-01},
 {-1.38140351e-01, 1.22108981e-02,-8.89507532e-02, 2.19320357e-02,
  -1.15629144e-01, 4.68564816e-02, 4.44662236e-02,-1.08275257e-01,
   3.71767990e-02, 1.40851410e-02, 1.53489575e-01, 8.22822973e-02,
   3.21076624e-02,-4.56268936e-02,-9.07634795e-02,-2.35701092e-02,
  -4.70702955e-03,-1.38828337e-01,-1.34605840e-01, 1.17599212e-01,
   1.14675917e-01, 3.87872540e-04, 2.45277714e-02, 1.52058408e-01,
   1.46040902e-01,-1.35121912e-01, 3.58821861e-02,-1.22047169e-02,
  -1.93190612e-02,-9.69702527e-02,-6.08041100e-02,-5.57648763e-02,
  -1.91609133e-02, 1.02391601e-01, 1.04292907e-01, 1.74520954e-01,
   1.21031720e-02,-1.35379378e-02, 2.05132857e-01, 5.73170222e-02,
  -1.50295600e-01,-8.48944858e-02, 6.45580292e-02,-7.56184980e-02,
  -6.96483180e-02, 1.80488169e-01, 7.66368816e-03,-1.70464758e-02,
   4.64299805e-02,-1.77512482e-01,-1.38939098e-01,-1.22266829e-01,
   5.85633554e-02, 1.41729340e-01,-4.04278859e-02, 4.95703556e-02,
  -9.85893700e-03, 3.83121744e-02, 2.32652783e-01,-1.14291973e-01,
  -1.65228799e-01,-1.94403350e-01, 1.76473353e-02,-2.65659541e-02,
   4.07068506e-02, 2.26863578e-01, 1.50160342e-01, 1.09042034e-01,
   3.62849273e-02, 3.71451788e-02,-7.35198930e-02, 1.37435332e-01,
   7.15027675e-02,-7.44527280e-02,-1.90630294e-02,-9.78413671e-02,
  -2.06903857e-03, 1.41271666e-01, 1.09164298e-01, 3.61524224e-02,
   9.60235950e-03, 8.45791623e-02,-3.79798859e-02, 6.04950823e-03,
  -9.01056677e-02, 1.40387444e-02,-1.02949083e-01,-2.20009461e-01,
  -9.53152776e-02, 5.27766533e-02, 4.01174836e-02, 4.02763821e-02,
   1.70814544e-02,-1.17810562e-01,-1.23164523e-02,-9.77002680e-02,
   5.78140281e-02,-2.69999981e-01,-2.55166233e-01,-2.92448014e-01,
   5.83642498e-02, 8.87322500e-02,-9.84691828e-03, 4.38148808e-03,
   2.79700279e-01, 1.53022647e-01, 1.80794552e-01, 1.91768065e-01,
   1.22796573e-01, 3.58911343e-02,-1.21373795e-01,-2.71708984e-02,
  -3.43683884e-02, 1.43692672e-01, 1.04337431e-01, 2.44762167e-01,
   3.66377346e-02, 1.83858305e-01, 6.06568716e-02, 1.27081499e-01,
   1.42239004e-01,-6.87209666e-02, 9.70494095e-03, 1.41887322e-01,
   7.15659633e-02,-5.18349595e-02,-1.20849442e-02, 8.17329250e-03,
  -1.17761239e-01,-3.40337873e-01,-2.87623763e-01, 4.44719419e-02,
  -2.20022295e-02, 3.02888919e-02, 2.83246282e-02, 1.20744526e-01,
   1.77720398e-01, 4.05303538e-02,-1.14802644e-01, 1.68588340e-01,
  -5.75073287e-02,-6.02973811e-03,-1.05176792e-01,-9.24379155e-02,
   7.26848766e-02,-3.54252160e-02,-5.22422455e-02,-5.68908779e-03,
  -2.97432933e-02,-3.79861183e-02,-3.89599949e-02,-3.64447720e-02,
  -5.49005531e-02,-1.61283791e-01,-1.83121804e-02, 1.02890320e-01,
   9.63874906e-02, 1.17520057e-01,-4.94810008e-03, 4.27699611e-02,
  -7.94881433e-02,-1.57511383e-01,-4.79952060e-03,-1.03432022e-01,
  -4.30120789e-02, 1.64655700e-01, 7.60730878e-02,-3.56079563e-02,
   1.16761386e-01,-3.95553187e-02, 1.81648433e-01, 1.19518945e-02,
  -1.80433989e-01,-6.06182516e-02,-8.29300210e-02,-7.89720006e-03,
  -4.39806059e-02,-7.65241235e-02, 1.85980834e-02,-4.49386314e-02,
   2.72299778e-02,-2.18982697e-02,-9.24458355e-02, 8.84171762e-03,
   1.93220414e-02,-1.19804576e-01,-4.96632159e-02, 6.97013512e-02,
   6.37427568e-02,-6.75004870e-02,-9.56788063e-02, 1.08946711e-01,
   1.14848604e-02,-1.04270726e-02,-2.16592669e-01,-8.63741189e-02,
   9.20094252e-02, 1.91904381e-01,-6.61635548e-02,-9.75869298e-02,
   1.51358977e-01,-4.75716256e-02,-8.68871361e-02,-3.91017757e-02,
  -1.45583630e-01,-1.76296622e-01, 1.82266369e-01, 5.32241650e-02,
   4.92405891e-02,-4.75702994e-02, 1.96786821e-01,-1.56657659e-02,
   1.20532960e-01,-2.50380218e-01,-1.67020988e-02,-6.31668344e-02,
   2.11608177e-03, 9.51017290e-02, 3.56409885e-02, 3.45767550e-02,
   1.88291364e-04,-1.01927720e-01,-1.17535219e-01, 6.27759546e-02,
   8.71444717e-02, 2.81059742e-01, 2.14538112e-01,-2.45308094e-02,
   9.05110464e-02,-2.10833624e-02,-1.09229222e-01, 1.13843858e-01,
   3.72483805e-02, 7.78260827e-02,-1.33337438e-01, 1.79163054e-01,
  -4.04677391e-02, 1.01019070e-01,-4.11678199e-03,-1.96143109e-02,
  -3.84904072e-02,-4.72085215e-02, 9.17430148e-02, 1.17266856e-01,
  -1.34197384e-01, 1.05483823e-01,-7.42940754e-02,-2.08946429e-02,
  -9.13586020e-02,-4.17540455e-03, 5.73513694e-02, 2.71894503e-02,
   1.50783211e-01, 7.92547092e-02, 9.88795012e-02,-7.14106113e-02},
 {-5.99199794e-02,-8.40589553e-02, 1.20151043e-01, 1.38001919e-01,
   9.41480920e-02,-8.26705154e-03, 9.37897712e-03,-8.92295465e-02,
  -9.77718756e-02, 1.35374265e-02,-4.73394105e-03, 6.76188171e-02,
   1.15042195e-01, 4.63943742e-02, 2.11313125e-02,-3.39835621e-02,
   1.16330251e-01, 2.13281110e-01, 5.22346459e-02, 7.62425438e-02,
   4.81547080e-02,-5.85885197e-02,-1.70776397e-01,-6.02379069e-02,
   5.10261506e-02,-1.38486596e-02,-2.37100586e-01,-3.06719542e-01,
   5.26168272e-02, 6.85098171e-02, 1.40326560e-01, 1.24806292e-01,
   8.66109207e-02, 1.98366195e-01,-5.07758297e-02,-1.62700176e-01,
   6.22014962e-02, 1.24016538e-01,-9.51719731e-02,-8.55993107e-03,
  -1.44014917e-02,-1.60755575e-01,-2.20587384e-02,-1.30768716e-01,
  -1.20075054e-01,-7.40074590e-02,-5.75246923e-02,-2.68080886e-02,
  -7.19951317e-02, 7.17027038e-02, 5.47722951e-02, 1.82231665e-01,
  -4.05707732e-02,-3.33068743e-02, 1.33797899e-01, 1.06724299e-01,
   1.57538220e-01,-1.14612959e-01, 8.00138414e-02, 4.23425958e-02,
   7.39142448e-02,-7.44451731e-02,-1.57906130e-01,-1.19152457e-01,
   1.71280682e-01,-5.83226755e-02,-1.35796770e-01,-1.80688187e-01,
  -5.95064349e-02, 9.27801579e-02,-1.61808774e-01,-6.85146451e-03,
  -1.64671376e-01,-3.90602723e-02, 1.11597560e-01, 2.38847047e-01,
  -1.03720538e-01, 2.20925808e-02, 1.18405744e-02, 9.13718641e-02,
  -7.29886070e-02, 5.11446483e-02, 1.34833902e-01, 1.27760038e-01,
  -3.74621525e-02, 2.27293819e-02, 1.18063614e-02, 2.04170629e-01,
   4.04689312e-02,-7.76019022e-02,-1.27722070e-01,-5.07809687e-03,
   1.44885227e-01, 2.14097545e-01,-5.93641922e-02, 1.22360513e-02,
   6.90394687e-03, 1.90243975e-03,-9.98513326e-02, 1.74624667e-01,
   8.91659185e-02, 1.63973942e-02, 1.12915851e-01, 9.66281630e-03,
   2.81568438e-01,-1.00642247e-02, 4.82082926e-03,-8.24484900e-02,
   1.44360512e-01,-5.87456487e-02, 1.86365191e-02,-8.18096176e-02,
   3.75524815e-03, 1.50897801e-02, 2.46058707e-03,-2.32871965e-01,
  -8.59826058e-03,-1.93496048e-01,-1.75463334e-01,-2.77968138e-01,
  -1.56930655e-01,-5.10728844e-02,-1.58626810e-01,-2.29531410e-03,
  -6.07551187e-02, 2.75861323e-02, 3.47321741e-02,-2.44603418e-02,
   1.54649755e-02, 3.90200652e-02, 2.22180828e-01, 2.22551957e-01,
  -1.03247680e-01,-6.61096349e-02, 1.33237004e-01, 6.99178949e-02,
   8.63522440e-02, 9.10305530e-02,-1.12576880e-01,-2.18151718e-01,
   1.51292816e-01, 2.73748506e-02,-4.02922928e-02,-6.54151589e-02,
   2.06858478e-02, 4.78876494e-02, 1.29205540e-01, 5.56327514e-02,
  -8.47993866e-02,-1.67062923e-01, 4.33786958e-02, 5.85061125e-02,
   4.88230027e-02,-2.30611898e-02,-9.84566733e-02, 5.81401139e-02,
  -2.83607803e-02, 1.17024489e-01, 1.89028739e-04,-8.34365487e-02,
   4.17482853e-02,-6.20037317e-02,-4.78653098e-03, 1.11370474e-01,
   1.87607273e-01,-6.70906976e-02, 2.08118722e-01, 2.06332326e-01,
  -1.17098344e-02,-7.79334232e-02, 4.02178913e-02, 3.87873240e-02,
   9.97195691e-02,-6.03118800e-02,-1.37017488e-01,-8.18424597e-02,
  -1.41260609e-01, 3.73752043e-02, 2.66016155e-01,-8.48138183e-02,
   8.32286179e-02,-4.40356620e-02, 4.63732965e-02,-3.97250019e-02,
   1.52187988e-01,-9.43419151e-03,-1.89699665e-01,-2.40304340e-02,
  -2.64776126e-02,-9.05894935e-02, 1.35626132e-03, 4.98709716e-02,
  -2.98884604e-02,-2.28236020e-02,-1.34481033e-02,-3.44481617e-02,
   5.29305115e-02,-5.42426482e-02, 1.15422577e-01, 1.70925826e-01,
   3.26297358e-02, 5.20562753e-03, 7.11839572e-02,-3.21390443e-02,
   1.96668506e-01, 1.05220173e-02, 2.59930138e-02,-1.25160590e-01,
   1.07929781e-02,-1.59579590e-01,-1.81995243e-01,-2.63662398e-01,
   1.50006469e-02, 8.57300032e-03, 6.97048530e-02, 2.86458563e-02,
  -3.34901847e-02,-3.25063989e-03,-5.68172336e-02, 1.79103613e-01,
   1.00139409e-01, 5.97506687e-02, 9.90460366e-02,-5.81600284e-03,
   1.55985877e-01,-6.00518426e-04,-3.08457259e-02,-7.54808933e-02,
   1.53299212e-01, 1.32330149e-01,-7.21960887e-02,-1.93822861e-01,
  -1.46526217e-01,-3.49370465e-02,-3.45026813e-02,-7.40978569e-02,
  -2.11927459e-01,-4.04794328e-02, 4.25595120e-02, 2.34776884e-02,
  -1.32171497e-01,-2.44329516e-02, 6.22513331e-02, 1.92300603e-01,
  -5.05925678e-02, 2.35794522e-02, 1.53583288e-02,-2.17087660e-02,
   5.33876121e-02,-6.48819432e-02,-8.50003287e-02,-1.69696748e-01,
  -8.01397935e-02,-4.72950675e-02, 3.41289700e-03,-7.56636914e-03},
 {-2.27890238e-02,-6.72100112e-02, 7.62119517e-02, 2.34062178e-03,
  -1.18440300e-01, 1.52180284e-01, 9.40922424e-02, 1.08131189e-02,
  -9.03535038e-02, 8.69625583e-02,-2.05691159e-02,-8.25197548e-02,
  -2.06228435e-01,-9.04988125e-02,-4.53363843e-02, 9.84802544e-02,
   1.95798367e-01,-2.96403305e-03, 3.64204608e-02, 1.15985340e-02,
  -3.68155278e-02,-7.43788108e-02,-1.20516986e-01,-7.63251558e-02,
  -1.11649729e-01, 1.41170323e-01, 3.12420055e-02,-1.41032040e-02,
  -1.27651274e-01, 8.62411633e-02,-8.47602263e-02,-6.30785599e-02,
  -3.47047374e-02, 9.89140011e-03,-1.17145166e-01,-8.23729485e-02,
   1.16918953e-02,-1.69689916e-02,-8.11632425e-02,-9.61531848e-02,
   4.80543822e-02, 1.13967203e-01,-4.72190268e-02, 1.17922209e-01,
   1.43178135e-01, 2.70762295e-02, 9.27860141e-02,-9.63374004e-02,
  -1.76461920e-01,-1.99190035e-01, 1.02860421e-01, 1.85475405e-02,
  -1.61068544e-01,-2.29563024e-02, 2.05742642e-01, 1.31762475e-01,
   6.99764267e-02, 7.14875804e-03,-2.39983629e-02,-1.39472544e-01,
   5.85410483e-02, 5.73186874e-02, 1.31770596e-01, 6.15204573e-02,
   1.71448231e-01,-1.94941703e-02,-1.32824957e-01,-1.87883571e-01,
   6.12064227e-02, 1.25241935e-01,-2.15094432e-01,-2.27853760e-01,
   5.67241572e-02, 1.21700987e-01,-4.79224138e-02, 1.71753094e-01,
   8.27499926e-02, 9.04487073e-02,-4.44730520e-02,-5.57282679e-02,
  -3.38040590e-02,-9.19397697e-02, 3.51458928e-03, 1.31299056e-03,
   9.29432083e-03, 1.07615754e-01, 9.85831320e-02, 1.38279781e-01,
  -1.17332034e-01,-6.87799081e-02,-4.77599725e-02, 8.76473561e-02,
  -1.21434987e-01,-6.52270094e-02,-9.42538306e-02, 2.45713666e-02,
  -1.78300470e-01,-1.56957030e-01,-2.22603381e-01,-6.57849535e-02,
   1.41104311e-02, 1.44533850e-02,-8.33917111e-02, 9.71892253e-02,
  -5.90178594e-02, 1.86780337e-02,-7.14333821e-03, 7.88622871e-02,
  -1.00510828e-01, 1.40499189e-01, 7.00541586e-03,-4.31112424e-02,
   4.86701615e-02, 2.41178736e-01, 1.80953041e-01,-6.41357750e-02,
   1.60692856e-01, 1.16463348e-01, 1.32403895e-01,-2.15854555e-01,
   2.63959933e-02,-2.63955574e-02, 9.84925181e-02,-1.37126282e-01,
   1.89059060e-02,-1.19182177e-01,-1.18985446e-03, 1.91922694e-01,
  -1.41106248e-01,-8.82369131e-02, 2.01685637e-01, 1.61119282e-01,
  -5.77748269e-02,-1.54822879e-02, 1.12670384e-01,-7.92290717e-02,
  -2.06510887e-01, 9.63130817e-02,-1.98279903e-03,-2.82438323e-02,
  -1.56558737e-01,-9.20889154e-02, 1.89002673e-03, 4.12761942e-02,
  -7.14605004e-02,-8.15145224e-02,-3.88037004e-02, 9.82506499e-02,
  -1.79270394e-02, 6.91606179e-02, 9.61270630e-02,-1.42618582e-01,
  -4.81888838e-02,-1.51673332e-01,-1.62272245e-01, 1.47914113e-02,
  -1.19027764e-01, 8.49209428e-02, 5.79179265e-02, 8.93866271e-02,
  -2.41773039e-01,-3.23627949e-01,-1.88106429e-02, 1.43379465e-01,
  -1.86238602e-01,-1.36570871e-01,-2.24655513e-02, 1.16695046e-01,
  -7.64794126e-02,-9.31439549e-02,-8.21792707e-02,-2.22504139e-01,
   1.53605759e-01, 1.36988759e-01, 5.20983078e-02,-1.04499981e-02,
  -6.21852204e-02,-6.60049543e-02,-7.70988017e-02, 1.07754081e-01,
  -1.67573631e-01,-1.02247544e-01, 6.20541535e-02, 3.58845145e-02,
  -1.15174269e-02, 3.29431556e-02, 8.37168843e-02,-7.50903413e-03,
   1.08453548e-02,-4.31945501e-03, 1.33740187e-01,-6.43062145e-02,
  -1.59575596e-01,-4.57472205e-02,-4.65694517e-02, 1.57546252e-01,
  -1.02282045e-02, 9.96593982e-02, 1.60089538e-01, 2.00543612e-01,
   7.36982897e-02,-8.11458305e-02, 1.43641859e-01,-1.16012394e-01,
  -6.72163256e-03, 5.09011280e-03,-3.21278982e-02,-8.35865214e-02,
  -5.88473082e-02,-3.99633273e-02,-3.65670882e-02, 3.60683613e-02,
   4.85658385e-02, 2.20465571e-01, 4.41347212e-02, 2.13424474e-01,
  -3.38239446e-02,-1.26211703e-01,-4.51007783e-02, 1.06468245e-01,
  -6.71622204e-03, 1.83878727e-02, 3.38133760e-02, 7.58031234e-02,
   7.08582699e-02, 1.43054992e-01,-1.07112005e-02, 1.84422582e-01,
   3.91158834e-02, 1.02737412e-01,-1.24901747e-02,-2.58454144e-01,
   1.69479027e-01, 8.11013952e-02,-1.53756067e-01,-9.23207477e-02,
   1.41090006e-01, 1.02046533e-02,-2.49589421e-02,-8.20127949e-02,
   6.30183816e-02, 1.76739972e-02, 1.46557465e-01, 8.59169364e-02,
  -1.68395042e-02, 7.14928433e-02,-4.87356000e-02, 3.35965529e-02,
   1.23147950e-01, 1.38830533e-02,-1.47982076e-01,-7.93147087e-02,
  -3.18826996e-02,-1.10926956e-01,-4.03144211e-02, 1.56242289e-02},
 { 4.34930809e-02, 1.20260350e-01, 1.16316497e-01,-1.28915319e-02,
   4.18970622e-02,-1.22746862e-01, 2.02186164e-02,-9.45564806e-02,
   3.94458659e-02, 3.81194651e-02,-5.59640937e-02, 3.46281193e-02,
  -1.27079070e-01,-1.00063197e-01,-9.11459625e-02,-4.44024801e-02,
  -1.42709650e-02,-1.36685416e-01, 2.38770768e-02, 5.44027127e-02,
   1.08760610e-01, 1.28802925e-01,-5.46814203e-02,-5.48164099e-02,
  -1.37556642e-01, 1.75479928e-03, 7.28504583e-02, 1.56875536e-01,
   2.83734873e-02,-8.94636661e-03, 1.49313584e-01,-3.93147767e-02,
   2.68802922e-02,-9.79545265e-02, 9.66417417e-02, 9.26170647e-02,
  -8.17013830e-02,-1.90529630e-01, 1.46412417e-01, 3.82787101e-02,
   1.01262107e-02,-1.08951949e-01, 8.37554485e-02,-7.12688640e-02,
   2.24413518e-02, 1.51803598e-01, 1.84466839e-01,-1.23153310e-02,
   1.39217302e-01, 1.10854782e-01,-4.54591215e-03, 1.54744744e-01,
  -6.69538230e-02, 1.07948273e-01, 2.10876197e-01, 1.63911402e-01,
  -4.86050248e-02, 1.36869317e-02, 1.67106539e-01,-1.16842769e-01,
  -1.53882578e-01,-1.32386237e-01, 1.38086816e-02,-1.26393139e-01,
   2.81009544e-03,-1.68619066e-01,-6.19551912e-02,-8.27376638e-03,
   7.66642019e-02, 9.08394996e-03, 1.28811061e-01, 4.35041338e-02,
   3.79402041e-02,-4.32787240e-02,-7.97906965e-02,-9.55909565e-02,
   9.39343497e-02, 1.16824575e-01,-5.80316503e-03,-1.25139371e-01,
  -2.64805406e-02, 1.27786025e-01,-8.29862244e-03, 1.48946077e-01,
  -2.74085579e-03, 1.08860686e-01, 2.06557110e-01,-1.62581615e-02,
   1.06241435e-01, 8.58707428e-02, 2.90932637e-02, 1.44095078e-01,
   9.95705053e-02,-1.19679704e-01,-6.72764257e-02,-1.69167951e-01,
   3.19562733e-01, 1.77687541e-01, 9.37674195e-02, 2.74258889e-02,
   9.52148512e-02, 1.05844706e-01,-1.20701499e-01,-2.31304094e-02,
  -1.60578385e-01,-1.65184364e-01, 8.04970507e-03, 1.35980934e-01,
  -1.65478408e-01,-1.51457861e-01,-4.05240397e-04, 2.44328622e-02,
  -8.78773704e-02,-1.60099640e-01,-2.06207544e-01, 5.32016866e-02,
  -1.97876226e-02,-4.74230247e-03, 3.38456407e-02, 1.18549690e-02,
  -2.42197625e-02,-4.28168736e-02, 3.07355672e-02,-6.21403009e-02,
  -1.00644529e-01,-9.17130560e-02, 9.33436677e-02, 3.84852774e-02,
   1.73255801e-01, 3.14415805e-02,-2.85246652e-02,-1.10899910e-01,
   1.52406022e-01,-5.43729663e-02,-1.36990309e-01, 7.59632289e-02,
   8.21669959e-03,-1.55679777e-01,-1.32019091e-02,-9.51594561e-02,
   5.94204925e-02,-1.10869549e-01, 6.88471943e-02,-7.59444162e-02,
   9.93543491e-02,-1.11908533e-01, 5.28839715e-02, 8.79117623e-02,
   4.37540784e-02, 1.44636527e-01,-6.13267012e-02,-5.23931868e-02,
   2.02693731e-01, 2.31268648e-02,-8.60861018e-02, 2.08771471e-02,
  -1.65891163e-02, 1.04106076e-01,-1.26939520e-01, 1.03902943e-01,
   1.51146144e-01, 2.05279931e-01, 2.33549625e-01,-1.21171214e-01,
   4.92879376e-02, 9.07238796e-02, 3.92523408e-02, 8.32426175e-02,
   1.05564654e-01, 1.14216551e-03,-1.89162746e-01,-7.41645247e-02,
  -1.90828890e-01,-5.49955852e-02,-5.52725568e-02,-1.70991272e-01,
  -9.76745114e-02, 2.05201395e-02,-1.10022038e-01,-2.31829342e-02,
  -1.54636949e-01,-1.78064525e-01, 5.51828369e-02, 8.24543536e-02,
   3.85247879e-02,-1.37508005e-01, 1.06929407e-01,-4.78706360e-02,
  -4.59315069e-02,-1.38688475e-01,-1.09141935e-02,-1.59677360e-02,
   2.17909552e-02, 6.75126687e-02, 3.00054364e-02, 9.29689854e-02,
  -2.68277852e-03,-1.46536395e-01,-4.24880758e-02, 9.90542471e-02,
  -1.07820369e-01,-6.89752847e-02,-6.81882426e-02,-5.19413278e-02,
  -2.98821598e-01,-1.46198481e-01,-4.94277924e-02,-1.70604093e-03,
  -1.32000163e-01,-1.19890645e-01, 7.95646757e-02,-6.39120564e-02,
   8.31681043e-02,-9.21139866e-03,-2.05278769e-02, 1.35179423e-02,
   2.48021958e-03, 9.02011469e-02,-9.08410549e-02, 7.15323314e-02,
   1.00728627e-02,-3.53429615e-02,-1.31034181e-01,-2.36687809e-01,
   2.84346994e-02,-2.72259358e-02, 7.34150112e-02,-9.86727700e-02,
  -3.47881801e-02, 1.26556465e-02, 5.53996861e-02, 1.64375752e-01,
   8.76105111e-03,-4.27832194e-02, 2.66054124e-02, 8.15956965e-02,
   8.85549560e-02, 4.47819047e-02, 6.97682500e-02, 8.26560799e-03,
  -1.20408647e-01,-1.36205152e-01, 9.65233892e-02, 1.08237304e-02,
  -1.42524257e-01, 2.42140710e-01,-1.41942069e-01, 5.49993999e-02,
   1.58886909e-01, 1.88689187e-01, 1.41151205e-01, 1.06220834e-01,
   4.34523337e-02, 1.70015506e-02,-6.64978772e-02, 9.19657797e-02},
 { 4.39531216e-03, 1.62202790e-02, 1.48105636e-01,-5.21623902e-02,
  -5.46858907e-02,-1.01683281e-01,-1.19170055e-01,-1.08046845e-01,
  -3.69204953e-02,-6.43183216e-02,-5.81118986e-02,-8.67142975e-02,
  -9.25762877e-02,-2.97138751e-01, 1.34245053e-01, 2.01272890e-01,
  -1.25540540e-01,-8.96079279e-03,-7.71472752e-02,-1.01732649e-01,
  -1.15188807e-01, 3.33566889e-02,-2.74447259e-03, 6.98691905e-02,
   2.59536486e-02,-3.33025157e-02,-8.34722295e-02, 7.99819827e-02,
   7.00152069e-02,-4.35767025e-02, 9.75222960e-02,-1.09451845e-01,
   8.03395361e-02, 5.89902066e-02,-9.69877318e-02,-4.57824282e-02,
   4.04728949e-02, 6.11306466e-02,-4.84383740e-02, 1.02266856e-01,
  -1.58424079e-01, 1.06127508e-01,-2.58483514e-02, 5.46281151e-02,
   1.25290334e-01, 1.82839304e-01,-1.17026635e-01,-5.24746515e-02,
   1.65687427e-02,-6.61804378e-02, 8.11289325e-02,-3.89878936e-02,
  -9.57992859e-03,-4.29332964e-02,-6.11266866e-02,-2.82956529e-02,
  -1.22282151e-02, 1.04537480e-01,-1.25457808e-01,-9.84833986e-02,
   4.29137759e-02,-1.97787955e-02,-2.05841046e-02,-7.23116994e-02,
   1.02932617e-01,-2.66303569e-02,-4.58397344e-02, 6.17236234e-02,
  -5.59421964e-02, 4.24890546e-03, 1.46320373e-01,-2.95418929e-02,
   9.13860425e-02, 1.34533569e-01, 3.49608250e-02,-3.72623540e-02,
  -7.18340371e-03,-1.08106017e-01, 5.33847287e-02, 2.13887230e-01,
   1.63429961e-01,-4.20237035e-02,-1.88784346e-01,-4.22312245e-02,
  -1.14127137e-02,-1.63280636e-01,-2.42032502e-02, 5.01789115e-02,
   7.21532851e-02, 4.77176309e-02, 1.14906743e-01,-1.28440633e-02,
  -1.26455992e-01,-8.48802179e-02,-2.07807183e-01,-1.45877237e-02,
  -1.61920711e-01, 1.29342288e-01,-1.46502256e-02, 9.96711478e-02,
   1.14617907e-01, 6.38717636e-02,-1.13469988e-01, 4.03412767e-02,
   1.20710999e-01, 1.42062847e-02, 2.69639678e-02, 1.89057011e-02,
  -9.60487202e-02, 2.74204146e-02, 8.18258524e-02,-7.68114403e-02,
   1.71381012e-01,-4.11661379e-02, 7.27336705e-02, 1.79462656e-02,
  -2.43377481e-02,-9.28257406e-02, 3.30592468e-02, 6.39868295e-03,
   1.31724954e-01, 1.20475166e-01, 1.03652902e-01, 3.65175158e-02,
   2.12890401e-01, 1.17215008e-01,-2.06358731e-01, 5.55368662e-02,
   3.51448581e-02, 1.56425312e-01, 1.63804367e-01, 8.80650654e-02,
  -2.28486285e-02,-2.52577495e-02, 3.34191918e-02, 1.75227463e-01,
   1.84510443e-02,-8.23021531e-02, 2.87845224e-01, 1.88483030e-01,
  -6.14785962e-02, 3.45134884e-02, 6.09610521e-04,-1.38915688e-01,
   3.49116363e-02,-1.81896016e-01, 1.31487777e-03,-7.51101673e-02,
  -1.19024977e-01,-1.74760222e-01, 6.69671148e-02,-5.20908795e-02,
   8.94852057e-02, 3.48820463e-02, 9.93502289e-02, 1.00473166e-01,
  -1.80079669e-01,-2.74681509e-01,-1.13588236e-01, 9.61000621e-02,
   5.82689978e-02, 8.02881047e-02,-1.40311524e-01, 4.70390730e-02,
   9.83335227e-02, 4.26008292e-02, 2.45966911e-02,-1.09179996e-01,
  -2.15129957e-01,-9.83250886e-02, 9.70681850e-03, 8.09411556e-02,
   1.35404095e-01,-4.45225164e-02,-4.99452129e-02, 3.78126614e-02,
   1.51516572e-01, 1.38794124e-01, 1.83117227e-03,-5.34735359e-02,
   3.50833014e-02, 2.19108127e-02, 5.49619868e-02,-9.28012133e-02,
  -3.75918448e-02, 4.04634140e-02, 1.89251721e-01,-4.67128046e-02,
   1.14044629e-01, 5.64887673e-02,-2.43259454e-03,-5.83657064e-02,
  -2.22727074e-03, 1.12428635e-01, 2.50615515e-02, 4.86782528e-02,
   4.06952918e-01, 1.79993868e-01,-7.09702075e-02, 9.63654835e-03,
   2.24820618e-02,-5.36362603e-02, 4.30985428e-02, 1.86705533e-02,
   1.69510424e-01,-9.95152369e-02,-1.91279098e-01,-1.88897923e-01,
  -3.06035616e-02,-3.70646864e-02,-1.09400190e-01, 1.12574540e-01,
  -1.41456127e-01, 1.32630676e-01, 3.81890014e-02,-3.14193889e-02,
   1.83477879e-01,-6.51051998e-02, 1.10969961e-01, 1.98291928e-01,
  -3.56892571e-02,-1.03326894e-01, 2.04048324e-02, 1.99258327e-01,
  -1.32756472e-01,-8.61425251e-02,-1.57211155e-01,-8.15864131e-02,
   1.91617191e-01, 8.29769950e-03,-9.67508927e-03, 1.09100481e-02,
  -5.69981709e-02,-6.34038448e-02,-6.86937273e-02,-9.54271704e-02,
   2.12023228e-01, 8.71919990e-02,-1.02848545e-01,-5.31388931e-02,
   2.39146985e-02,-9.05334577e-02,-7.06794560e-02,-7.67781632e-03,
  -1.98006243e-01,-6.66625053e-02,-5.32913841e-02, 8.85464028e-02,
   9.48043168e-02,-1.19238593e-01,-2.03354731e-01,-8.83228481e-02,
   1.47406021e-02,-2.44976565e-01,-1.99862912e-01,-1.15846254e-01},
 { 5.92541732e-02,-1.07317187e-01,-1.52274892e-02,-1.65577680e-01,
  -7.29711950e-02, 8.19982663e-02, 7.86748305e-02,-2.58271061e-02,
   1.35600111e-02, 3.54788899e-02, 5.42273163e-04,-1.66503969e-03,
  -6.75778016e-02, 7.71208107e-02,-5.91911264e-02,-1.63631737e-01,
   1.31721079e-01, 1.09635992e-02, 3.24224830e-02,-2.05500230e-01,
   4.23715934e-02,-3.03831585e-02, 2.09260494e-01, 2.42380910e-02,
   1.46165292e-03,-5.18234866e-03,-6.58584163e-02, 8.86407495e-02,
  -6.99818507e-02,-1.42494619e-01,-1.51273115e-02,-1.16160654e-01,
   2.24017054e-02,-1.98520318e-01,-1.57966942e-01,-4.27178741e-02,
   1.79102555e-01, 1.01726890e-01,-3.06050666e-03, 6.94995821e-02,
  -2.34405361e-02,-1.12428382e-01, 9.50733200e-02,-2.92816665e-02,
  -7.10912943e-02,-1.16123453e-01, 5.17975762e-02, 3.95112038e-02,
  -5.34513406e-02, 5.30731957e-03, 4.12233472e-02,-4.39118780e-02,
   6.58788979e-02, 1.13588087e-01,-2.81762127e-02,-2.01504111e-01,
   7.09498450e-02,-3.52692418e-02,-1.58510610e-01, 2.01021507e-02,
  -5.74622080e-02,-8.87481347e-02, 2.21765079e-02, 9.72317830e-02,
  -4.61640954e-02,-2.54842162e-01,-5.87941483e-02, 2.58495092e-01,
   1.10509405e-02,-1.44922465e-01, 2.56065845e-01, 2.25260004e-01,
   2.26683961e-03,-8.55074376e-02, 1.22905103e-02, 7.23166242e-02,
   6.29524067e-02, 3.05077247e-03,-4.72061820e-02,-1.45848840e-02,
   1.02173509e-02, 1.43106595e-01,-4.49247994e-02, 1.10723451e-02,
  -1.51013389e-01,-1.09792531e-01,-1.92092210e-01, 9.91214998e-03,
  -2.42917284e-01, 1.05264969e-01,-1.67471338e-02,-9.90945920e-02,
   5.50633185e-02, 1.23569489e-01, 5.95862754e-02,-1.29087523e-01,
  -1.09138221e-01, 2.05416214e-02, 1.29753739e-01, 8.50730985e-02,
  -6.13280982e-02, 5.67344315e-02, 1.02272145e-01, 1.59827635e-01,
   1.48976743e-01, 2.28626251e-01, 8.19533244e-02,-2.19224513e-01,
   9.55574438e-02, 8.80755335e-02,-2.82394260e-01,-9.19903144e-02,
   8.66239294e-02, 1.28577612e-02,-2.03554809e-01,-1.38385110e-02,
   8.67701769e-02, 1.49957716e-01,-6.02342300e-02,-6.20296597e-02,
  -4.18158658e-02,-2.74898022e-01, 1.62561536e-02, 8.65079165e-02,
  -3.77737619e-02,-2.18743786e-01, 1.60153270e-01, 1.08829312e-01,
   1.37845963e-01, 6.00635372e-02, 1.93723112e-01, 6.86205104e-02,
  -9.81137273e-05,-2.95390040e-02,-2.18377193e-03,-1.62456676e-01,
  -4.05918173e-02, 1.65956452e-01,-3.51143219e-02,-1.31033540e-01,
   1.36129633e-01,-6.15605377e-02,-5.10917418e-02,-2.50423569e-02,
  -6.81920117e-03,-3.29409190e-03, 9.07090772e-03,-1.48391381e-01,
   2.12269481e-02,-2.77108341e-01, 2.12451071e-01, 5.47259338e-02,
  -3.21766913e-01,-8.33411291e-02, 1.39882505e-01,-3.37093929e-03,
   7.72651508e-02, 1.85316563e-01, 8.39413032e-02,-1.70439601e-01,
  -1.55079246e-01,-3.95032391e-02,-7.21076801e-02, 1.64233536e-01,
   8.89840871e-02, 1.35032058e-01, 9.16006342e-02,-1.83463633e-01,
   3.19447108e-02, 5.19608073e-02, 2.54534669e-02,-1.66660935e-01,
  -1.26954958e-01,-3.31043154e-02, 7.01600919e-03,-5.92327751e-02,
   1.38167460e-02,-1.05778342e-02, 2.84035075e-02,-1.59609076e-02,
   1.58699825e-01, 1.74753666e-01, 3.67634930e-02,-1.31865621e-01,
  -8.43549967e-02,-1.57826334e-01,-1.64769337e-01, 1.79586075e-02,
   2.94026490e-02, 2.01207809e-02,-7.72612989e-02, 8.59236941e-02,
  -9.46539268e-02,-6.60114363e-02, 6.39522523e-02, 1.59222037e-01,
   1.31207272e-01, 5.90822324e-02,-2.26893187e-01,-1.36862069e-01,
   1.47892803e-01,-8.98182392e-02,-2.42685527e-01, 2.21963581e-02,
  -1.52438760e-01,-6.75946772e-02,-2.52511036e-02, 1.81597948e-01,
   1.80164620e-01, 1.39283836e-01, 1.83763966e-01,-6.17832365e-03,
  -1.17987633e-01,-1.76442832e-01, 7.75422603e-02, 8.50395709e-02,
   2.92179622e-02,-2.93802798e-01, 3.13817076e-02, 1.32894665e-02,
   1.78745806e-01,-3.70869078e-02, 3.74610350e-02,-2.95690689e-02,
  -1.71513185e-01,-1.67538851e-01,-2.90314168e-01,-1.68827876e-01,
   1.95604429e-01, 6.10920377e-02,-8.25741515e-02,-5.25034592e-03,
   4.73250709e-02,-5.65309674e-02, 9.85403880e-02, 1.26011521e-01,
  -2.07964882e-01,-1.64732244e-03, 7.11074322e-02, 5.85380197e-02,
   9.05052200e-02,-3.20344046e-02,-2.94258147e-02,-1.90643847e-01,
   9.06035379e-02,-6.88047037e-02, 1.52042508e-01,-1.25082329e-01,
  -1.79793388e-01,-1.92474172e-01, 1.03893794e-01, 4.90764864e-02,
  -9.17514935e-02,-1.48382690e-02, 1.19099095e-01, 1.28536090e-01}};
const float net0_dense0_bias[10] = {-0.01387908, 0.03895891,-0.00512032,-0.03132752,-0.02839213, 0.01643305,
 -0.0017239 , 0.0389647 , 0.00627838,-0.02019279};
